tree
version=v2
num_class=1
num_tree_per_iteration=1
label_index=0
max_feature_idx=300
objective=binary sigmoid:1
feature_names=HR O2Sat Temp SBP MAP DBP Resp EtCO2 BaseExcess HCO3 FiO2 pH PaCO2 SaO2 AST BUN Alkalinephos Calcium Chloride Creatinine Bilirubin_direct Glucose Lactate Magnesium Phosphate Potassium Bilirubin_total TroponinI Hct Hgb PTT WBC Fibrinogen Platelets Age Gender Unit1 HospAdmTime ICULOS WBC_24h_max WBC_24h_min Temp_24h_max Temp_24h_min MAP_24h_max MAP_24h_min SBP_24h_max SBP_24h_min Creatinine_24h_max Creatinine_24h_min Platelets_24h_max Platelets_24h_min FiO2_24h_max FiO2_24h_min SaO2_24h_max SaO2_24h_min PTT_24h_max PTT_24h_min BUN_24h_max BUN_24h_min Calcium_24h_max Calcium_24h_min Phosphate_24h_max Phosphate_24h_min Hct_24h_max Hct_24h_min Lactate_24h_max Lactate_24h_min Alkalinephos_24h_max Alkalinephos_24h_min Glucose_24h_max Glucose_24h_min Hgb_24h_max Hgb_24h_min WBC_12h_max WBC_12h_min Temp_12h_max Temp_12h_min MAP_12h_max MAP_12h_min SBP_12h_max SBP_12h_min Creatinine_12h_max Creatinine_12h_min Platelets_12h_max Platelets_12h_min FiO2_12h_max FiO2_12h_min SaO2_12h_max SaO2_12h_min PTT_12h_max PTT_12h_min BUN_12h_max BUN_12h_min Calcium_12h_max Calcium_12h_min Phosphate_12h_max Phosphate_12h_min Hct_12h_max Hct_12h_min Lactate_12h_max Lactate_12h_min Alkalinephos_12h_max Alkalinephos_12h_min Glucose_12h_max Glucose_12h_min Hgb_12h_max Hgb_12h_min WBC_6h_max WBC_6h_min Temp_6h_max Temp_6h_min MAP_6h_max MAP_6h_min SBP_6h_max SBP_6h_min Creatinine_6h_max Creatinine_6h_min Platelets_6h_max Platelets_6h_min FiO2_6h_max FiO2_6h_min SaO2_6h_max SaO2_6h_min PTT_6h_max PTT_6h_min BUN_6h_max BUN_6h_min Calcium_6h_max Calcium_6h_min Phosphate_6h_max Phosphate_6h_min Hct_6h_max Hct_6h_min Lactate_6h_max Lactate_6h_min Alkalinephos_6h_max Alkalinephos_6h_min Glucose_6h_max Glucose_6h_min Hgb_6h_max Hgb_6h_min HR_div_SBP SaO2_div_FiO2 counts_24h Inspection_frequency WBC_24h_diff Temp_24h_diff MAP_24h_diff SBP_24h_diff Creatinine_24h_diff Platelets_24h_diff FiO2_24h_diff SaO2_24h_diff PTT_24h_diff BUN_24h_diff Calcium_24h_diff Phosphate_24h_diff Hct_24h_diff Lactate_24h_diff Alkalinephos_24h_diff Glucose_24h_diff Hgb_24h_diff HR_before_one HR_before_two MAP_before_one MAP_before_two O2Sat_before_one O2Sat_before_two Resp_before_one Resp_before_two SBP_before_one SBP_before_two HR_diff_two MAP_diff_two O2Sat_diff_two Resp_diff_two SBP_diff_one SBP_diff_two Temp_before_one Temp_before_two Temp_diff_one Temp_diff_two HR_slope_one HR_slope_two MAP_slope_one MAP_slope_two O2Sat_slope_one O2Sat_slope_two Resp_slope_one Resp_slope_two SBP_slope_one SBP_slope_two Temp_slope_one Temp_slope_two WBC_12h_diff Temp_12h_diff MAP_12h_diff SBP_12h_diff Creatinine_12h_diff Platelets_12h_diff FiO2_12h_diff SaO2_12h_diff PTT_12h_diff BUN_12h_diff Calcium_12h_diff Phosphate_12h_diff Hct_12h_diff Lactate_12h_diff Alkalinephos_12h_diff Glucose_12h_diff Hgb_12h_diff WBC_6h_diff Temp_6h_diff MAP_6h_diff SBP_6h_diff Creatinine_6h_diff Platelets_6h_diff FiO2_6h_diff SaO2_6h_diff PTT_6h_diff BUN_6h_diff Calcium_6h_diff Phosphate_6h_diff Hct_6h_diff Lactate_6h_diff Alkalinephos_6h_diff Glucose_6h_diff Hgb_6h_diff qSOFA Glucose_before_one Glucose_before_two WBC_before_one WBC_before_two Glucose_diff_two WBC_diff_two WBC_slope_two HR_delta Resp_delta MAP_delta O2Sat_delta SBP_delta Temp_delta FiO2_delta Glucose_delta pH_delta Potassium_delta DBP_delta EtCO2_delta BaseExcess_delta HCO3_delta PaCO2_delta SaO2_delta AST_delta BUN_delta Alkalinephos_delta Calcium_delta Chloride_delta Creatinine_delta Bilirubin_direct_delta Lactate_delta Magnesium_delta Phosphate_delta Bilirubin_total_delta TroponinI_delta Hct_delta Hgb_delta PTT_delta WBC_delta Fibrinogen_delta Platelets_delta HR_count O2Sat_count Temp_count SBP_count MAP_count DBP_count Resp_count EtCO2_count BaseExcess_count HCO3_count FiO2_count pH_count PaCO2_count SaO2_count AST_count BUN_count Alkalinephos_count Calcium_count Chloride_count Creatinine_count Glucose_count Lactate_count Magnesium_count Phosphate_count Potassium_count Bilirubin_total_count Hct_count Hgb_count PTT_count WBC_count Platelets_count
feature_infos=[20:280] [20:100] [32.359999999999999:41.600000000000001] [20:292] [20:300] [20:292] [1:99] [10:100] [-29:26] [0:55] [0.20999999999999999:1] [6.6299999999999999:7.7999999999999998] [10:100] [24:100] [3:9961] [1:268] [7:3833] [1:27.899999999999999] [66:141] [0.10000000000000001:41.899999999999999] [0.01:37.5] [14:896] [0.20000000000000001:28.899999999999999] [0.20000000000000001:9.8000000000000007] [0.29999999999999999:18.800000000000001] [1.3:11.800000000000001] [0.10000000000000001:49.600000000000001] [0.01:440] [5.5:71.700000000000003] [2.2000000000000002:30] [16.600000000000001:250] [0.10000000000000001:387] [34:1760] [1:2322] [15:100] [0:1] [0:1] [-5366.8599999999997:22.039999999999999] [1:336] [0.10000000000000001:422.89999999999998] [0.10000000000000001:387] [32.359999999999999:41.600000000000001] [32.359999999999999:41.600000000000001] [22:300] [20:280] [26:299] [20:252] [0.10000000000000001:46.600000000000001] [0.10000000000000001:41.899999999999999] [2:2322] [1:2322] [0.20999999999999999:1] [0.20999999999999999:1] [24:100] [24:100] [16.899999999999999:250] [12.5:250] [1:268] [1:268] [1:27.899999999999999] [1:27] [0.29999999999999999:18.800000000000001] [0.29999999999999999:16.5] [9.3000000000000007:71.700000000000003] [5.5:69.700000000000003] [0.20000000000000001:31] [0.20000000000000001:27] [7:3833] [7:3833] [14:952] [11:893] [2.6000000000000001:30] [2.2000000000000002:26.600000000000001] [0.10000000000000001:422.89999999999998] [0.10000000000000001:387] [32.359999999999999:41.600000000000001] [32.359999999999999:41.600000000000001] [22:300] [20:280] [26:299] [20:252] [0.10000000000000001:46.600000000000001] [0.10000000000000001:41.899999999999999] [2:2322] [1:2322] [0.20999999999999999:1] [0.20999999999999999:1] [24:100] [24:100] [16.600000000000001:250] [12.5:250] [1:268] [1:268] [1:27.899999999999999] [1:27.899999999999999] [0.29999999999999999:18.800000000000001] [0.29999999999999999:16.5] [9.3000000000000007:71.700000000000003] [5.5:69.700000000000003] [0.20000000000000001:31] [0.20000000000000001:27] [7:3833] [7:3833] [14:952] [14:893] [2.6000000000000001:30] [2.2000000000000002:26.600000000000001] [0.10000000000000001:387] [0.10000000000000001:387] [32.359999999999999:41.600000000000001] [32.359999999999999:41.600000000000001] [21:300] [20:280] [26:299] [20:252] [0.10000000000000001:46.600000000000001] [0.10000000000000001:41.899999999999999] [1:2322] [1:2322] [0.20999999999999999:1] [0.20999999999999999:1] [24:100] [24:100] [16.600000000000001:250] [12.5:250] [1:268] [1:268] [1:27.899999999999999] [1:27.899999999999999] [0.29999999999999999:18.800000000000001] [0.29999999999999999:18.800000000000001] [9.3000000000000007:71.700000000000003] [5.5:71.700000000000003] [0.20000000000000001:31] [0.20000000000000001:27] [7:3833] [7:3833] [14:952] [14:893] [2.6000000000000001:30] [2.2000000000000002:30] [0.16161616161616166:6.5] [40:476.19047619047615] [1:451] [0.25:21] [0:221.30000000000001] [0:7.3500000000000014] [0:273.5] [0:243.5] [0:38.5] [0:530] [0:0.79000000000000004] [0:68] [0:228.09999999999999] [0:207] [0:18.710000000000001] [0:14.5] [0:40] [0:27.600000000000001] [0:1192] [0:845] [0:15] [20:265] [20:219] [20:300] [20:298] [20:100] [20:100] [1:98] [1:99] [20:293] [22:293] [-132:166] [-240:273.5] [-78:80] [-87:83] [-163:170] [-180:177] [32.359999999999999:41.600000000000001] [32.359999999999999:41.600000000000001] [-5.5:5.4399999999999977] [-5.8400000000000025:4.9399999999999986] [-0.76271186440677963:1.8571428571428568] [-0.80714285714285716:3.8571428571428568] [-0.80536912751677847:13.341463414634148] [-0.8571428571428571:13.341463414634148] [-0.78494623655913975:4] [-0.79591836734693877:4] [-0.96153846153846156:22] [-0.96428571428571441:34] [-0.85106382978723405:5.9000000000000004] [-0.85314685314685312:7.6818181818181825] [-0.14237199582027174:0.16810877626699622] [-0.15287958115183253:0.15265760197775025] [0:173.79999999999995] [0:7.1099999999999985] [0:273.5] [0:243.5] [0:38.5] [0:513] [0:0.79000000000000004] [0:68] [0:228.09999999999999] [0:207] [0:18.710000000000001] [0:14.5] [0:36] [0:27.600000000000001] [0:1192] [0:845] [0:15] [0:100.40000000000001] [0:6.6700000000000026] [0:273.5] [0:198] [0:38.400000000000013] [0:513] [0:0.79000000000000004] [0:68] [0:228.09999999999999] [0:184] [0:18.579999999999998] [0:14.300000000000001] [0:36] [0:27.600000000000001] [0:556] [0:831] [0:15] [0:2] [17:914] [10:952] [0.10000000000000001:387] [0.10000000000000001:387] [-735:760] [-157.70000000000005:209.19999999999999] [-0.97169811320754718:34.295081967213122] [0:108] [0:142] [0:108] [0:108] [0:203] [0:160] [0:334] [0:229] [0:332] [0:241] [0:335] [0:335] [0:334] [0:334] [0:332] [0:335] [0:335] [0:241] [0:335] [0:241] [0:334] [0:241] [0:335] [0:335] [0:279] [0:322] [0:335] [0:335] [0:241] [0:241] [0:332] [0:241] [0:335] [0:241] [0:333] [0:331] [0:278] [0:330] [0:329] [0:329] [0:315] [0:301] [0:111] [0:84] [0:115] [0:123] [0:111] [0:86] [0:70] [0:78] [0:68] [0:62] [0:75] [0:78] [0:150] [0:56] [0:79] [0:75] [0:81] [0:73] [0:113] [0:101] [0:104] [0:82] [0:107]
tree_sizes=5621 5748 5736 5750 5739 5711 5752 5727 5747 5761 5764 5749 5763 5763 5765 5736 5754 5779 5767 5738 5776 5762 5785 5772 5768 5753 5753 5778 5785 5776 5775 5783 5759 5784 5778 5780 5820 5783 5787 5800 5803 5747 5811 5781 5816 5800 5783 5800 5817 5786 5847 5810 5812 5795 5807 5818 5798 5834 5811 5770 5810 5835 5789 5799 5808 5813 5860 5822 5771 5833 5806 5809 5833 5859 5785 5824 5846 5829 5822 5842 5848 5847 5849 5825 5833 5806 5853 5829 5841 5862 5859 5864 5821 5836 5834 5836 5824 5820 5836 5858 5829 5843 5862 5839 5826 5852 5864 5845 5813 5860 5864 5848 5839 5856 5850 5868 5829 5876 5838 5872 5859 5820 5837 5848 5843 5853 5845 5840 5882 5854 5842 5858 5859 5856 5859 5849 5869 5834 5864 5888 5865 5860 5844 5857 5835 5831 5843 5870 5865 5874 5859 5869 5870 5839 5810 5873 5838 5837 5842 5878 5847 5846 5868 5863 5860 5849 5858 5858 5868 5857 5865 5866 5847 5814 5849 5820 5850 5880 5847 5851 5854 5881 5824 5871 5897 5849 5863 5860 5867 5854 5859 5857 5849 5842 5859 5848 5864 5859 5856 5894 5852 5823 5827 5879 5870 5873 5864 5876 5851 5864 5865 5868 5857 5836 5869 5875 5875 5836 5863 5875 5866 5816 5879 5865 5866 5849 5870 5845 5850 5856 5863 5877 5882 5830 5856 5865 5873 5874 5883 5888 5867 5897 5861 5854 5851 5844 5882 5889 5880 5853 5860 5860 5879 5845 5875 5833 5871 5847 5877 5889 5860 5864 5857 5852 5845 5873 5896 5852 5844 5879 5862 5860 5877 5843 5836 5854 5872 5879 5874 5896 5867 5885 5858 5883 5880 5873 5875 5847 5848 5869 5845 5860 5852 5861 5875 5904 5870 5863 5857 5857 5828 5869 5865 5883 5845 5879 5908 5865 5875 5843 5866 5869 5890 5842 5868 5887 5850 5874 5855 5875 5874 5873 5847 5864 5857 5892 5863 5875 5869 5826 5884 5889 5875 5874 5861 5835 5872 5864 5877 5868 5860 5875 5877 5875 5832 5884 5821 5874 5848 5860 5871 5867 5883 5852 5853 5834 5835 5870 5861 5839 5896 5881 5882 5917 5893 5902 5906 5881 5841 5880 5865 5842 5827 5851 5861 5867 5890 5843 5835 5839 5871 5876 5849 5871 5875 5903 5898 5886 5847 5856 5849 5839 5918 5891 5890 5890 5847 5889 5866 5839 5896 5890 5892 5865 5884 5867 5860 5850 5869 5850 5867 5871 5875 5885 5894 5873 5872 5852 5852 5879 5901 5895 5881 5864 5840 5851 5843 5865 5874 5882 5883 5887 5874 5889 5877 5895 5827 5908 5867 5894 5887 5907 5891 5862 5866 5854 5889 5910 5925 5876 5866 5858 5859 5875 5851 5882 5867 5847 5821 5900 5871 5868 5862 5862 5859 5885 5842 5898 5912 5902 5879 5889 5893 5859 5902 5899 5879 5874 5864 5872 5869 5918 5868 5883 5896 5862 5930 5909 5877 5883 5860 5859 5900 5871 5864 5841 5909 5884 5856 5857 5862 5850 5884

Tree=0
num_leaves=70
num_cat=0
split_feature=38 2 242 256 244 67 146 85 80 41 2 85 141 67 46 197 31 107 155 290 145 48 86 37 277 37 258 153 292 45 67 141 75 138 240 6 103 256 281 109 112 275 53 281 71 204 47 42 29 275 157 9 296 209 62 81 107 9 256 37 44 0 94 29 18 128 45 277 25
split_gain=29609.2 3654.47 2623.15 2230.85 1638.89 1604.17 1544.04 961.675 852.034 702.219 682.018 634.649 616.33 543.27 516.138 682.183 501.432 483.955 482.523 441.216 423.793 403.118 398.546 376.713 639.532 369.449 342.892 323.747 330.554 309.058 289.496 275.677 256.625 255.433 246.452 245.486 234.207 230.593 223.121 219.64 217.328 212.114 211.091 199.235 341.703 189.371 191.575 274.84 188.545 204.442 223.13 178.483 177.849 227.862 176.891 197.728 172.299 170.01 167.039 182.354 158.069 154.681 145.13 152.945 135.929 135.453 132.75 121.719 118.748
threshold=57.500000000000007 37.605000000000011 7.5000000000000009 27.500000000000004 7.5000000000000009 35.500000000000007 1.5500000000000009 0.9850000000000001 97.625000000000014 38.265000000000008 37.855000000000011 0.49000000000000005 1.0800943396226417 56.500000000000007 88.125000000000014 18.125000000000004 12.350000000000003 8.1200000000000028 0.30000000000000032 19.500000000000004 4.6000000000000005 1.3550000000000002 0.54500000000000015 -1.9049999999999996 1.0000000180025095e-35 -123.96499999999999 46.500000000000007 1.4000000000000006 6.5000000000000009 152.58500000000001 130.50000000000003 1.0105541631857424 35.710000000000008 134.25000000000003 6.5000000000000009 26.875000000000004 88.250000000000014 23.500000000000004 30.500000000000004 37.675000000000004 53.915000000000006 45.500000000000007 97.425000000000026 6.5000000000000009 10.415000000000001 6.4050000000000011 1.7750000000000001 35.835000000000008 9.615000000000002 80.500000000000014 1.5999999999999999 19.050000000000004 7.5000000000000009 14.875000000000002 5.2500000000000009 3.4850000000000008 20.325000000000006 25.950000000000003 153.50000000000003 -4.754999999999999 56.750000000000007 105.75000000000001 7.2250000000000005 8.5150000000000023 108.75000000000001 7.1250000000000009 111.12500000000001 1.0000000180025095e-35 3.9750000000000005
decision_type=2 10 2 2 2 10 10 8 10 10 10 10 8 10 8 8 10 10 10 2 10 10 10 2 2 2 2 8 2 8 8 8 8 10 2 10 10 2 2 10 8 2 8 2 8 10 10 8 10 2 10 8 2 10 10 10 10 8 2 2 8 10 10 10 10 10 10 2 10
left_child=2 3 5 7 21 9 11 14 -8 23 31 27 22 -10 18 -16 68 -9 -2 30 58 -5 26 25 54 -1 32 33 -29 -19 -13 -4 -7 -3 57 38 -11 62 43 67 -27 56 -41 44 -17 46 -24 -48 -45 -50 -51 64 53 -28 61 -56 66 -14 59 -18 -44 -25 -38 -64 -33 -59 -12 -34 -6
right_child=1 6 10 4 16 12 8 17 13 36 41 19 34 -15 15 35 20 29 -20 -21 -22 -23 45 24 -26 40 52 28 -30 -31 -32 51 39 -35 -36 -37 37 -39 -40 42 -42 -43 60 48 -46 -47 47 -49 49 50 -52 -53 -54 -55 55 -57 -58 65 -60 -61 -62 -63 63 -65 -66 -67 -68 -69 -70
leaf_value=-3.9963078679681021 -3.9490445559058349 -3.9743939364947725 -4.0067674694693469 -3.8756809306789184 -3.9957210710839557 -3.9638568776992136 -3.81431770341307 -3.9483787180015515 -3.9196134727582215 -3.968787616701468 -3.9711371565005407 -3.9523915480435963 -3.9847363693170008 -3.8551904316082872 -3.9084285143886071 -3.9194326270189679 -3.9916077220457513 -3.8621021491980669 -3.8943091899042761 -3.8656348353307664 -3.9181277337065734 -3.9431653595637539 -3.9874523131848711 -3.9996005077909724 -3.952103221960515 -3.9890962295098276 -3.9802043849971711 -3.9505367267170262 -3.8909110883056246 -3.9140758499931958 -3.8985941331583072 -3.9597392668234894 -3.9980020032033163 -3.9323278227926823 -3.9364041121074314 -3.9309161580307199 -3.9994972371167314 -3.9563519670469938 -3.9386794571291905 -3.9612079633242678 -4.0051732301119936 -3.9638739479294487 -3.9679853297809289 -3.9903509874206886 -3.9760503703019014 -3.947622875756621 -3.9888802816811926 -3.9357769944012353 -3.9806373223075617 -3.9722668720887038 -3.9224923700617249 -4.0014111411697408 -3.9935028011987597 -3.9306177690189883 -3.9522738323491309 -3.9993509032353671 -3.9723027897179226 -3.9402219042195741 -3.9448131081806364 -3.9554536176321924 -3.993356510747152 -3.9892925227366987 -3.962096296526239 -3.9899391553767822 -3.9975573174880128 -3.9731707523545667 -3.9984023020311148 -3.9839946727883615 -3.9814295448844272
leaf_count=37336 1801 2136 480796 1003 6930 1604 1050 1002 1784 3068 1051 1013 3493 1266 1704 1145 2359 1360 1844 1173 1017 1000 5166 79058 1749 4915 1048 1058 1046 1235 1282 1049 41114 1322 1202 1529 9585 1046 1777 1739 147638 1219 1641 2590 1274 1228 1050 1161 2167 1022 1016 36610 1035 1049 1001 1018 1649 1162 1008 1186 9053 9193 1233 11772 1103 1798 26035 3837 6260
internal_value=0 5.34809 -0.31284 4.27053 2.51277 0.161503 8.81377 5.97071 12.6415 -0.0825409 -0.646894 7.0758 1.1224 10.6298 5.25645 4.60936 1.82229 9.51898 7.78163 9.601 3.71456 8.97978 0.90297 -0.192965 0.202002 -0.384363 0.69283 5.50129 7.82764 11.2333 7.68304 -0.710518 0.564067 4.08584 3.14968 4.00169 1.08318 0.8294 3.60887 0.481126 -0.548489 0.456668 1.36591 3.13825 4.99192 2.41999 1.96475 3.81747 2.47834 3.46162 5.17175 -0.100337 3.11794 4.37711 0.114723 2.31598 0.326306 2.56723 2.73403 1.96582 0.970707 0.0643625 0.66954 1.1871 2.00476 3.89343 0.182601 0.236402 1.02321
internal_count=991863 55359 936504 42229 20763 386992 13130 21466 4100 308612 549512 9030 78380 3050 17869 14224 18760 3597 3645 3468 5570 2003 70725 281908 92019 189889 62120 5562 2104 2595 2295 519558 58988 3458 7655 12520 26704 23636 10991 57384 152553 29954 12433 9214 2419 8605 7377 2211 6795 4205 2038 38762 3132 2097 90270 2019 28735 6453 4553 3545 10694 88251 22590 13005 2152 2960 27086 44951 13190
shrinkage=1


Tree=1
num_leaves=70
num_cat=0
split_feature=38 2 256 2 250 250 67 151 217 42 143 199 275 55 72 36 263 3 119 247 112 37 112 31 37 60 141 100 41 37 147 228 155 34 36 137 109 59 259 147 26 249 116 25 40 247 47 297 165 141 155 251 25 22 36 80 94 89 113 55 80 37 40 57 232 250 129 205 122
split_gain=27691.5 3009 2095.43 2077.66 1716.53 1496.91 1335.3 1070.33 1028.32 881.287 633.054 592.666 543.107 523.551 473.483 460.493 456.855 454.334 423.924 421.946 371.882 357.501 355.36 351.083 349.389 530.331 344.106 297.412 289.136 282.842 276.197 271.991 271.614 269.153 266.256 259.719 259.401 246.401 238.113 230.122 213.255 207.032 203.787 258.928 203.594 196.096 191.315 185.539 217.877 181.592 163.916 158.638 158.454 150.4 148.022 146.879 158.216 184.016 136.709 171.589 132.786 130.623 128.517 122.446 124.135 116.973 116.767 114.316 113.599
threshold=58.500000000000007 37.910000000000004 27.500000000000004 37.910000000000004 6.5000000000000009 7.5000000000000009 40.500000000000007 0.14999999999999999 0.034999999999999983 36.655000000000008 151.50000000000003 27.250000000000004 44.500000000000007 32.350000000000001 7.8750000000000009 1.0000000180025095e-35 203.50000000000003 241.00000000000003 0.97500000000000009 19.500000000000004 79.415000000000006 -0.034999999999999996 65.585000000000022 17.325000000000006 -1.5349999999999999 4.8850000000000007 1.2309915518008008 2.1050000000000004 35.625000000000007 -96.184999999999988 50.580000000000005 1.0000000180025095e-35 6.9750000000000005 62.485000000000007 1.0000000180025095e-35 135.25000000000003 38.735000000000007 8.2250000000000014 61.500000000000007 42.580000000000005 0.92500000000000016 36.500000000000007 3.1050000000000004 3.8050000000000002 5.5250000000000012 3.5000000000000004 1.5950000000000004 5.5000000000000009 82.085000000000022 0.9667456556082149 0.19999999999999968 8.5000000000000018 3.9750000000000005 1.5250000000000001 1.0000000180025095e-35 113.62500000000001 8.4750000000000014 101.65000000000002 140.12500000000003 30.045000000000005 77.875000000000014 -0.014999999999999998 14.025000000000002 28.250000000000004 12.410000000000002 18.500000000000004 1.8500000000000003 0.1999999999999999 94.350000000000009
decision_type=2 10 2 10 2 2 10 10 8 10 2 10 2 8 10 8 2 8 10 2 10 2 10 10 2 8 8 8 8 2 10 2 10 2 10 8 10 8 2 8 10 2 10 8 8 2 10 2 10 10 10 2 10 8 8 10 10 8 8 10 8 2 8 10 8 2 10 10 10
left_child=3 2 8 5 -4 6 24 9 10 -3 -2 21 15 38 -12 40 22 45 26 20 -6 35 30 52 29 -26 28 36 -8 54 33 -15 53 -16 -19 -10 66 47 -11 -36 -5 60 61 -44 -29 -7 -27 -24 -49 63 -35 -46 -21 -20 -1 56 57 -54 59 -39 -31 -30 -48 -47 -65 -14 -17 -60 -63
right_child=1 7 4 12 19 17 18 -9 11 13 14 -13 65 31 16 27 -18 34 32 23 -22 -23 37 -25 25 46 -28 44 42 41 -32 -33 -34 50 39 -37 -38 58 -40 -41 -42 -43 43 -45 51 49 62 48 -50 -51 -52 -53 55 -55 -56 -57 -58 -59 67 -61 -62 68 -64 64 -66 -67 -68 -69 -70
leaf_value=-0.0030295175824155041 0.10189296436235289 0.14288180160905395 0.091664123093477254 -0.0016832498112034011 0.065952118462849402 0.0021489636382286507 0.042902114515197647 0.16263863616267468 0.081851960657107078 0.072674743989943918 0.091175113270589997 0.13576407873675198 0.06615582847540559 0.072954887874222149 0.079565556372245605 0.041236296902373112 0.08782110358838964 0.0019111577718369361 0.047340609241367092 0.004277102778692519 0.020210708942194861 0.10611350963106037 0.02486824173362695 0.047360258407789388 0.04308380343802426 -8.3359359331435971e-05 0.03506591166618378 0.035946516772974606 0.0027310129276003725 0.01023139091129375 0.091710236711237333 0.12437074721043535 0.063591990494837353 0.017604718552349814 0.050204663277354442 0.034010609444288763 0.052165638277841729 0.062433394204944113 0.03158064956852065 0.0052902346119611835 0.022474394679684675 0.028243660543942603 0.051515566703502817 0.011061302354204931 0.018055212080874287 -0.007934551751087527 0.0055986691129514248 0.038135872624759821 0.081546724115253738 -0.0023586976311503966 0.052239490689635862 0.0041913707989676089 0.021059153785148693 0.015341123138606893 0.0055902746674382185 0.0042125282505511312 0.013531282911089499 0.062779870342605196 0.030136603180479202 0.024073292499122767 -0.0061536773881308909 0.0080831590284777353 0.027928603639319413 -0.0068212961424618176 -0.0012271512981340783 0.030640981104566062 0.016171664154706694 0.0071838215663404675 0.032681340285200693
leaf_count=22837 1227 1027 1962 18843 1903 14067 1178 1003 1223 1404 1258 1089 1032 1110 1108 1257 1223 5641 1018 7597 1985 1260 1125 1681 1701 73265 2457 1657 40384 2852 1002 1026 1006 1274 1485 1160 1784 1051 1582 1126 2301 1013 1132 4177 6814 378458 4105 1181 1296 46047 1703 14395 1212 4191 22212 2225 2284 1119 2347 1525 142809 3456 2245 69268 33472 1007 6168 2314 1517
internal_value=0 5.12286 4.42602 -0.305443 2.75351 -0.394575 0.00246706 9.45659 5.88563 8.31739 5.14284 8.90605 1.1039 7.06902 4.80185 0.956814 4.48347 -0.636939 1.00822 2.08435 4.26795 7.50338 4.1523 1.55087 -0.2227 0.189674 0.794926 1.52181 0.663656 -0.398562 5.7397 9.78075 2.85089 4.89878 1.11029 5.85007 2.65749 3.40099 5.09466 3.08665 0.0959032 -0.559395 0.577189 1.9668 1.06365 -0.663859 0.100278 4.96643 6.0806 -0.687316 3.75384 0.86614 1.17221 2.15901 0.122135 1.99028 2.74547 4.1034 2.62272 3.97148 -0.583106 0.414349 1.34974 -0.730729 -0.499787 4.85718 2.04057 1.87239 1.56154
internal_count=991863 53486 46334 938377 21968 883119 333555 7152 24366 6149 19634 4732 55258 5122 18407 53219 17149 549564 60516 20006 3888 3643 15926 16118 273039 81316 54301 32075 51844 191723 5087 2136 6215 4085 8252 2383 9209 10839 2986 2611 21144 146674 50666 5309 22866 541312 79615 3602 2477 527245 2977 21209 14437 5209 45049 6840 4615 2331 7237 2576 145661 45357 6350 481198 102740 2039 7425 4661 4973
shrinkage=0.01


Tree=2
num_leaves=70
num_cat=0
split_feature=38 2 109 256 244 244 67 217 11 107 2 275 36 16 47 14 46 291 240 214 45 37 7 38 107 100 3 249 146 195 23 41 37 14 67 119 78 2 272 297 45 140 115 91 9 74 31 89 163 84 247 63 132 84 3 39 153 275 140 60 19 258 80 59 258 72 80 115 52
split_gain=25719.4 2466.97 2091.75 1619.73 1204.78 1141.93 1117.87 1102.97 829.283 759.773 742.099 679.753 567.823 537.276 528.665 446.309 425.432 538.16 409.18 378.13 360.629 355.954 507.325 339.365 317.724 300.09 298.137 297.31 264.783 262.608 258.554 251.321 247.655 239.321 236.27 220.865 214.959 212.286 203.405 312.97 190.033 189.66 185.658 184.786 199.344 209.129 178.207 170.549 166.32 164.657 159.164 172.964 222.175 157.56 154.85 153.798 196.653 153.867 153.988 151.974 145.957 145.713 145.678 140.923 196.308 140.821 137.896 133.974 175.946
threshold=58.500000000000007 37.605000000000011 37.910000000000004 29.500000000000004 7.5000000000000009 7.5000000000000009 40.500000000000007 0.069999999999999993 7.3250000000000011 8.9200000000000017 38.395000000000003 46.500000000000007 1.0000000180025095e-35 91.500000000000014 0.9850000000000001 50.500000000000007 88.125000000000014 6.5000000000000009 3.5000000000000004 47.125000000000007 110.87500000000001 -1.3749999999999998 43.250000000000007 191.50000000000003 12.825000000000001 2.1050000000000004 241.00000000000003 36.500000000000007 1.5049999999999992 1.1600000000000004 2.0750000000000006 35.515000000000008 -123.96499999999999 520.50000000000011 42.500000000000007 0.59500000000000008 69.085000000000022 38.710000000000008 31.500000000000004 5.5000000000000009 159.12500000000003 7.9250000000000016 1.6850000000000003 20.750000000000004 18.250000000000004 16.750000000000004 16.550000000000004 31.650000000000002 99.750000000000014 174.50000000000003 12.500000000000002 35.225000000000009 37.225000000000009 182.50000000000003 102.58500000000002 8.4100000000000019 6.1499999999999995 79.500000000000014 10.225000000000001 5.9050000000000011 1.2950000000000002 44.500000000000007 89.625000000000014 8.7750000000000021 23.500000000000004 11.125000000000002 77.875000000000014 0.96500000000000008 0.39500000000000007
decision_type=2 10 10 2 2 2 10 10 10 10 10 2 8 10 10 8 8 2 2 8 10 2 8 2 10 8 8 2 10 8 10 8 2 8 10 10 8 10 2 2 10 10 10 8 10 10 10 8 10 8 2 10 10 10 8 10 10 2 10 8 8 2 10 10 2 10 8 8 10
left_child=2 3 4 8 6 -5 21 10 9 -2 23 12 34 16 -12 -15 17 -10 29 31 33 27 -23 28 50 37 46 32 38 55 -13 -8 -1 -14 63 -21 -26 67 39 -3 -40 -35 59 -33 45 -45 -6 -30 -28 -37 -7 -52 -53 -38 -36 -18 57 -57 -59 -24 -48 -46 -44 -4 -65 -27 -34 -22 -69
right_child=1 7 11 5 26 24 19 -9 13 -11 14 30 20 15 -16 -17 18 -19 -20 35 25 22 42 -25 36 65 48 -29 47 -31 -32 43 66 41 54 49 53 -39 40 -41 -42 -43 62 44 61 -47 60 -49 -50 -51 51 52 -54 -55 -56 56 -58 58 -60 -61 -62 -63 -64 64 -66 -67 -68 68 -70
leaf_value=0.00094073994501199846 0.048606368803018593 0.040322398756427395 -0.005061875954979196 0.073843135102895432 -0.007188548250706357 0.031614075244816082 0.041367390350505788 0.13711088875261307 0.091837340914132357 0.1222080670164717 0.072917208168577219 0.024637325388145569 0.06394471275220949 0.10097815826899359 0.13898069937719715 0.050354026445447175 0.0050580959420639202 0.032388949617979106 0.075235432846106759 0.016223482154786469 0.0098395657606490158 0.041513345124126515 0.026667845329476591 0.09687755404920817 0.052400599403288124 0.0093844198525881942 0.0023799656418148065 0.030560651822465038 0.056616737950664214 0.054441838005034209 0.07376979456100155 0.00082029103442720535 0.0097253202958057523 0.046575357002634939 0.040067093618453911 0.023945265954811747 0.0047062008149073983 0.048584742709383823 0.051278061698830167 0.088209320094745844 0.016582549707991837 0.0050048079910277746 0.03243310764070232 0.012512581173574643 0.0017319727544283258 0.038968756673975799 -0.004923291150025471 0.093292134789446146 0.029273548924106746 0.065905989657199487 0.0030979070945318411 0.049206257765791794 0.0062174368463920153 0.036978416647556814 0.0075727418218399789 0.011605558120783397 0.056514295329777156 0.021116312628994559 0.053858444624212791 -0.00087917979683646552 0.0047623968872208136 0.029342434831876308 0.005926384739180275 -0.0076418783116136701 0.032793294108464245 -0.00095827866483470976 -0.0063020992710055576 0.00043970703023662398 0.032148632057391595
leaf_count=35593 1305 1703 26561 1955 460077 1839 1059 1144 1610 1478 1303 1262 1053 1501 1017 2085 1646 1400 1089 5293 7711 1651 1111 1014 1901 23490 6092 1333 1316 1846 1049 24586 3072 1016 1003 1012 1545 1180 1538 1147 1611 1493 1627 10308 13618 1965 30573 1063 1611 1007 8535 1164 1548 1696 4307 2725 1139 1718 1286 71788 12496 1144 3946 1336 1376 10780 157868 1255 4294
internal_value=0 4.78982 -0.303148 3.90176 -0.419633 2.39801 -0.0719131 7.42287 5.26707 8.8288 6.76368 0.786168 0.677081 4.70399 10.2355 7.15416 4.08985 6.42607 3.45199 0.849623 1.16623 -0.275106 0.146531 5.87616 1.78801 0.997232 -0.652288 -0.447698 5.41197 3.00387 4.69907 0.627361 -0.472147 3.4428 -0.0721872 2.42704 3.31394 1.89437 4.59823 5.97481 3.36452 2.19106 0.0573639 0.551605 0.976867 1.67646 -0.675213 7.31501 0.805232 4.48766 1.16556 0.829912 2.46494 2.16243 1.375 2.4712 2.94309 2.4001 3.51448 -0.0444545 -0.210359 0.390072 1.36942 -0.33898 1.29218 0.613897 -0.599047 1.62021 2.50083
internal_count=991863 53867 937996 41011 848830 20183 337981 12856 20828 2783 11712 89166 86855 18045 2320 3586 14459 3010 11449 59992 52272 277989 80123 9392 18228 48710 510849 197866 8378 10360 2311 52680 196533 3562 34583 7312 5142 14440 5999 2850 3149 2509 78472 51621 27035 12273 503146 2379 7703 2019 13086 11247 2712 3241 5310 8514 6868 5729 3004 72899 43069 14762 5573 29273 2712 34270 160940 13260 5549
shrinkage=0.01


Tree=3
num_leaves=70
num_cat=0
split_feature=38 242 178 101 256 244 200 200 109 109 141 178 250 252 72 232 126 31 36 141 249 36 119 240 42 145 86 155 71 263 71 77 196 70 44 141 14 11 69 258 275 107 150 65 19 79 178 115 226 72 109 279 31 119 247 31 158 114 57 7 27 75 232 126 178 49 133 194 8
split_gain=23949.7 2641.32 2141.08 1500.99 1409 1113.46 786.141 724.142 716.851 598.739 523.905 479.976 444.203 390.3 377.604 358.784 349.538 338.539 326.691 321.267 320.077 324.278 552.716 315.391 307.038 289.946 284.083 268.774 265.411 256.853 250.854 241.757 314.752 327.713 270.631 229.964 212.037 210.751 207.221 200.645 198.612 191.533 184.7 176.686 174.407 173.445 171.147 169.392 163.861 163.542 162.856 156.854 169.112 150.076 137.438 134.955 134.595 130.724 130.011 129.999 128.349 146.204 128.186 225.573 124.241 123.455 121.487 120.885 119.715
threshold=57.500000000000007 7.5000000000000009 37.605000000000011 35.500000000000007 32.500000000000007 7.5000000000000009 0.034999999999999983 0.35500000000000009 38.105000000000011 37.910000000000004 0.90723727968074497 38.395000000000003 4.5000000000000009 74.500000000000014 7.8250000000000002 8.5150000000000023 26.250000000000004 12.250000000000002 1.0000000180025095e-35 0.49625462911008872 35.500000000000007 1.0000000180025095e-35 0.44500000000000006 6.5000000000000009 36.680000000000007 4.5499999999999989 0.54500000000000015 6.9050000000000011 9.3250000000000011 196.50000000000003 10.510000000000002 75.585000000000022 40.080000000000005 94.250000000000014 60.085000000000008 1.0105541631857424 19.250000000000004 7.4450000000000012 159.25000000000003 47.500000000000007 82.500000000000014 17.150000000000002 20.500000000000004 1.635 1.9950000000000003 140.12500000000003 35.290000000000006 1.7450000000000003 18.750000000000004 7.9850000000000003 37.855000000000011 1.0000000180025095e-35 10.540000000000001 0.69500000000000006 3.5000000000000004 11.350000000000003 2.2450000000000006 89.625000000000014 35.500000000000007 30.750000000000004 0.18500000000000003 37.290000000000006 16.450000000000003 7.7500000000000009 37.355000000000011 185.50000000000003 1.4950000000000003 5.5000000000000027 -4.1749999999999998
decision_type=2 2 10 10 2 2 10 8 10 10 8 10 2 2 8 10 10 10 8 8 2 8 10 2 10 10 10 10 10 2 10 10 10 8 10 8 10 8 10 2 2 10 10 8 10 8 8 10 10 10 8 2 10 10 2 10 10 10 10 8 8 10 8 10 8 10 10 10 8
left_child=1 3 4 8 7 16 11 14 20 35 26 24 -8 -13 -2 -9 -6 59 -10 55 21 -1 44 27 40 49 39 56 57 31 53 -21 33 45 -34 54 58 38 42 46 -4 -38 -26 -39 -23 -33 -5 -37 64 -19 -28 52 -30 62 -3 -16 68 -24 -11 -7 61 -48 65 -64 -35 -20 -46 -62 -12
right_child=2 9 6 10 5 17 12 15 18 36 23 13 -14 -15 19 -17 -18 25 30 29 -22 22 28 -25 37 -27 50 -29 51 -31 -32 32 34 48 -36 47 41 43 -40 -41 -42 -43 -44 -45 66 -47 60 -49 -50 -51 -52 -53 -54 -55 -56 -57 -58 -59 -60 -61 67 -63 63 -65 -66 -67 -68 -69 -70
leaf_value=-0.0055385949177897279 0.078073719562160554 0.00050209058311170851 0.055294493330867757 0.032585345337541413 0.096764892512962164 0.03224245959405931 0.13265500072147907 0.045699736417882761 0.00011311477968131624 -0.0022934318935913913 0.036654786160701947 0.11746433340162989 0.074317950025992355 0.060112730664255994 0.0043507269942464717 0.095909951044427677 0.041372732708964056 0.047302650094260691 0.029574481790169315 0.072535470548120623 0.027814377423285751 -0.0032812765836055307 0.027140645541221232 0.056106429812336905 0.026824178630149166 0.064598691149807486 0.015677060464843566 0.049480760801613705 0.0033761923148903829 0.075226188403964458 0.0084313108006773638 0.07360723559477915 0.085490391002394986 0.017204346621946094 0.038820034313086296 -0.0038927535540499102 0.0066650050906496786 0.05191568805343217 0.077798844199303843 0.027000566847619107 0.096595683467871285 0.033331120725811875 0.064943500302028764 0.016886395305608055 0.0049412248874567714 0.036047478516593755 0.0085391761475703768 0.0091792330755295533 0.048416200574449508 0.015769429717838953 0.043212868516702002 0.0012381979639915889 0.043587862312155806 0.050959380112268811 -0.0078281644409196882 0.03703011381161251 -0.0023182510220677629 0.010824866015699468 0.01751151112034588 0.0073734993152831619 0.0018164573425702873 0.038714333236643535 0.020749293641186925 0.061817612494477786 0.04305329274035459 -0.0013287446864023713 0.033243203302534073 0.018935489383641316 0.016051190189625541
leaf_count=96626 1360 11620 1069 1145 1008 1250 1071 1006 9068 29554 1777 1014 1119 1064 1535 1925 1025 1127 1186 1100 1985 128463 3466 1284 1332 1024 5556 1405 1333 1175 7641 1260 1138 5195 1250 30192 9192 1163 1350 2273 1013 1771 1103 1667 5156 1140 4152 6893 1366 3601 1457 31493 1051 1220 458474 1057 1871 13684 1968 11568 42527 1125 2613 1005 1101 1725 1018 2419 11299
internal_value=0 -0.303117 4.4578 0.170593 3.65679 2.27278 6.82469 4.86334 -0.0686063 -0.642843 1.08604 6.03982 10.3324 8.87802 4.34396 7.95628 6.9205 1.66316 1.15152 4.06149 -0.176714 -0.198387 -0.0143171 2.20057 5.31507 3.0969 0.755013 1.91615 0.652181 4.45459 1.79926 4.17973 3.89838 3.35416 6.15669 -0.716287 0.210088 4.57153 5.63092 0.568058 7.53667 1.10034 4.425 3.14306 -0.268294 5.60121 0.47052 -0.145252 2.64745 2.32522 2.1429 0.265391 2.11971 2.72936 -0.762048 1.77139 1.6208 1.41383 -0.104223 0.983505 0.403988 1.502 2.28586 3.20795 2.17176 1.13145 0.964585 0.274274 1.88643
internal_count=991863 936687 55176 387023 42211 20603 12965 21608 308733 549664 78290 10775 2190 2078 18677 2931 2033 18570 24458 17317 284275 282290 185664 17636 8697 5752 60654 16352 51027 14725 15390 13550 12450 10062 2388 507179 42485 6615 3785 53641 2082 10963 2435 2830 134637 2400 51368 37085 7662 4728 7013 33877 2384 7749 470094 2592 14947 17150 31522 12818 50223 5277 6529 3618 6296 2911 6174 44946 13076
shrinkage=0.01


Tree=4
num_leaves=70
num_cat=0
split_feature=38 242 2 67 256 250 217 109 109 11 107 214 146 16 37 7 46 95 61 259 107 92 14 37 258 141 240 249 169 247 8 145 141 86 99 195 119 112 209 37 100 130 9 79 81 291 49 57 0 2 19 249 205 280 2 74 9 251 62 268 57 160 37 74 161 276 25 94 41
split_gain=22448.5 2564.39 1867.37 1394.22 1203.72 880.912 673.956 639.433 632.293 590.632 550.813 478.664 457.454 449.869 416.44 531.814 391.66 460.535 389.159 356.019 339.162 312.046 311.654 307.386 301.13 278.433 264.626 252.739 246.48 246.447 244.304 344.734 236.512 221.953 258.019 213.98 198.246 187.589 185.608 199.013 185.065 280.42 183.427 173.729 166.773 162.832 157.989 157.774 154.099 152.606 148.802 147.954 146.588 139.43 138.847 137.007 136.033 134.239 141.185 225.754 133.036 132.575 146.447 130.108 125.186 120.956 120.346 155.481 117.606
threshold=58.500000000000007 7.5000000000000009 37.605000000000011 34.500000000000007 32.500000000000007 7.5000000000000009 0.069999999999999993 38.105000000000011 37.910000000000004 7.3250000000000011 8.9200000000000017 47.125000000000007 1.5550000000000037 91.500000000000014 -1.5349999999999999 42.750000000000007 88.125000000000014 3.5250000000000004 3.6750000000000003 58.500000000000007 12.825000000000001 9.2500000000000018 50.500000000000007 -123.96499999999999 48.500000000000007 0.93697240547634253 2.5000000000000004 48.500000000000007 21.875000000000004 37.500000000000007 -1.0499999999999998 2.3999999999999999 1.0508866917765225 0.59500000000000008 2.2050000000000005 1.0500000000000009 0.94500000000000006 53.915000000000006 20.250000000000004 -60.284999999999989 1.2250000000000003 2.8250000000000006 19.050000000000004 139.62500000000003 1.6850000000000003 2.5000000000000004 174.50000000000003 35.500000000000007 104.75000000000001 38.305000000000007 1.6850000000000003 34.500000000000007 0.39999999999999908 19.500000000000004 37.675000000000004 13.050000000000002 18.875000000000004 77.500000000000014 3.6750000000000003 80.500000000000014 24.750000000000004 95.250000000000014 -0.094999999999999987 15.525000000000002 1.0000000000000007 97.500000000000014 3.9750000000000005 7.7250000000000005 35.710000000000008
decision_type=2 2 10 10 2 2 10 10 10 10 10 8 10 10 2 8 8 8 10 2 10 8 8 2 2 10 2 2 10 2 10 10 8 10 8 8 10 8 10 2 10 10 8 10 10 2 10 10 10 10 10 2 10 2 10 8 10 2 10 2 10 10 2 10 8 2 10 10 8
left_child=1 3 4 7 9 -6 12 14 32 10 -2 24 21 16 23 -16 17 -11 19 -14 66 -4 -15 -1 25 33 35 47 -9 -23 -31 60 50 68 43 53 54 -25 39 -30 41 -22 -34 -35 48 -46 -37 49 -17 -10 -3 -39 -26 -18 -13 -49 61 58 59 -55 -32 62 -27 -52 -41 -42 -7 -68 -5
right_child=2 8 6 11 5 20 -8 28 27 13 -12 36 18 22 15 44 26 -19 -20 -21 40 29 -24 37 52 56 -28 -29 38 30 31 -33 42 34 -36 46 -38 51 -40 64 65 -43 -44 -45 45 -47 -48 55 -50 -51 63 -53 -54 57 -56 -57 -58 -59 -60 -61 -62 -63 -64 -65 -66 -67 67 -69 -70
leaf_value=0.0023926599669244252 0.041276824748110064 -0.0081075619305100294 0.084131653016925267 0.026378313984642878 0.062994514054311321 0.0033414466186818281 0.10760401433894705 0.005874023593173368 -0.0021750915374842924 0.08549873694404754 0.10047688517586791 0.016250297723072505 0.090901816144431644 0.085020702718175176 0.04279826773535203 -0.00041341521378995578 0.0070654517042702701 0.033729858624242305 0.10667069716043569 0.042276104504956752 0.020115531766535875 0.068553125700055034 0.045439570700233363 0.0090358369298911157 0.018653505892186933 0.021821997086289863 0.060383837590555267 0.034034300354031197 0.058335533455495553 0.018262600929181874 0.022452942111542848 0.080132724478033004 0.02317051141446462 0.060308272474518122 0.0072964380046545377 0.024484027985272917 0.047008851577031364 -0.0059213229780533541 0.0074498055673039576 0.0098837461239655207 0.00095056217955622141 0.064706876428238275 -0.0020687214247608952 0.017703109133759477 0.0079906482701412578 0.040123468548022075 0.060519064141502543 0.0064046098921299779 0.0097343918124684799 0.010223281877512759 -0.0054918189332115582 0.018757177791124201 0.053474322675429418 0.024826419872893749 0.041910094646304658 0.039566663609413258 0.0097054740412358433 0.013039533820606455 0.015326726650916816 0.06721498056871901 0.053238954865072165 0.0022748451718060721 0.049674728745343295 0.0049459042378774253 0.038396683580450154 0.033380863838871372 0.042873399738088618 0.012206472167294679 0.0026021296491664961
leaf_count=37509 1295 402329 1019 1084 1941 6808 1142 16950 31724 1346 1442 7001 1021 1516 1633 73465 2391 1680 1156 1457 1327 1484 2103 5039 1670 3104 1121 1268 1107 1871 1578 1047 1681 1015 4035 1005 1727 148775 2953 1891 1172 1504 28124 1005 5287 1029 1298 2053 9472 6675 68435 1318 1005 1316 1320 1014 6160 2102 1152 1127 1042 1053 1477 7598 1468 1118 1049 5110 47670
internal_value=0 -0.29863 4.27006 0.166972 3.50786 2.21731 6.39862 -0.0664208 -0.634602 4.6084 7.43262 1.03637 5.88949 4.15121 -0.169297 0.24857 3.60664 5.70127 7.70741 6.27364 1.6641 4.96354 6.24955 -0.369768 0.813909 0.71347 3.00844 0.237808 1.08101 4.46114 3.80618 4.80608 -0.710715 0.487959 1.80236 2.64923 2.51601 -0.520002 2.20135 3.13628 3.18574 4.39522 -0.0598266 3.91685 0.166718 1.32849 4.47746 0.133321 0.0758422 0.00107369 -0.752204 -0.568902 3.18562 2.11078 2.0386 1.7462 1.73153 2.70211 3.51469 4.46792 3.49517 2.54435 3.08245 -0.443536 2.24754 1.69574 1.01527 1.74891 0.317879
internal_count=991863 938123 53740 387222 40923 20029 12817 307896 550901 20894 2737 79326 11675 18157 283527 90886 14538 3026 3634 2478 18088 8041 3619 192641 69278 66603 11512 42734 24369 7022 5538 3667 508167 54809 6055 10391 10048 155132 7419 4466 5121 2831 29805 2020 89253 6316 2303 41466 82937 38399 478362 150093 2675 8088 8321 3067 11794 5697 3595 2443 2620 5634 4581 76033 3359 2290 12967 6159 48754
shrinkage=0.01


Tree=5
num_leaves=70
num_cat=0
split_feature=38 242 250 67 256 2 109 0 2 144 278 141 2 244 107 37 7 249 2 31 112 217 37 0 141 7 42 144 157 275 50 268 44 71 86 145 197 75 67 150 115 37 115 115 49 72 30 248 100 34 75 109 152 24 200 139 25 110 7 2 141 167 107 115 7 115 94 63 74
split_gain=21154.5 2522.16 1557.65 1407.02 1148.5 737.481 654.327 644.754 632.992 503.248 471.468 416.242 401.558 345.266 392.781 341.216 520.465 337.164 307.147 302.343 294.842 292.7 279.319 278.02 265.16 243.191 235.089 302.572 242.17 218.822 224.608 210.286 206.68 198.482 196.012 192.863 192.288 255.875 183.763 182.477 179.628 174.465 169.017 168.309 160.647 251.105 156.082 156.06 155.144 152.289 151.028 171.624 171.071 197.686 149.172 148.841 145.861 139.799 133.072 132.503 132.209 132.044 129.327 146.299 126.298 124.309 121.4 121.293 113.961
threshold=57.500000000000007 7.5000000000000009 3.5000000000000004 39.500000000000007 49.500000000000007 37.460000000000008 38.105000000000011 93.250000000000014 37.855000000000011 6.2041666666666666 8.5000000000000018 0.90723727968074497 38.395000000000003 60.500000000000007 18.715000000000003 -1.5349999999999999 43.250000000000007 35.500000000000007 37.355000000000011 12.350000000000003 73.750000000000014 0.089999999999999997 -123.96499999999999 87.750000000000014 1.0105541631857424 12.750000000000002 37.180000000000007 8.0690476190476215 1.5999999999999999 39.500000000000007 255.50000000000003 91.500000000000014 53.750000000000007 7.7250000000000005 0.54500000000000015 4.4000000000000021 77.750000000000014 37.225000000000001 100.50000000000001 18.250000000000004 1.7450000000000003 -0.024999999999999998 1.6850000000000003 1.7750000000000001 187.50000000000003 9.1250000000000018 28.425000000000001 9.5000000000000018 1.405 77.655000000000015 35.735000000000007 37.675000000000004 0.72500000000000153 2.8250000000000006 0.049999999999999968 10.025000000000002 3.9950000000000006 37.265000000000008 43.250000000000007 38.305000000000007 0.66236541236541246 97.250000000000014 14.025000000000002 3.1050000000000004 19.750000000000004 1.6850000000000003 5.9050000000000011 35.32500000000001 15.225000000000001
decision_type=2 2 2 10 2 10 10 10 10 2 2 8 10 2 10 2 8 2 10 10 10 10 2 10 8 10 10 2 10 2 8 2 8 8 10 10 8 8 8 8 10 2 10 10 10 10 8 2 8 2 8 8 8 10 8 8 10 8 8 10 8 8 8 10 10 10 8 10 10
left_child=1 3 7 6 9 19 15 21 24 -4 -9 25 13 14 18 17 -17 22 46 56 -7 31 -1 -15 65 34 27 -20 -29 30 -8 60 -24 -10 50 44 64 -38 -12 -22 -26 57 66 -36 -21 -46 -11 -42 -32 61 -5 -52 53 -53 -48 -28 67 -27 -58 -35 -2 -50 -44 -64 -13 -3 -18 -6 -67
right_child=2 8 4 11 5 20 29 10 33 12 38 36 -14 23 -16 16 42 -19 26 35 39 -23 32 -25 40 41 55 28 -30 -31 48 -33 -34 59 43 -37 37 -39 -40 -41 47 -43 62 -45 45 -47 54 -49 49 -51 51 52 -54 -55 -56 -57 58 -59 -60 -61 -62 -63 63 -65 -66 68 -68 -69 -70
leaf_value=0.0019227509200998312 0.019111810649433618 -0.0080700631162051988 0.077573465676858314 0.02919055677094879 -0.0038869237067389213 0.065031805764719092 0.0034915295619107872 0.11707417367186528 0.034103617945676408 0.015525389461500502 0.049192949562982015 0.015231521053126558 0.078371741953206592 0.089012933592170468 0.068246486857947417 0.040179174152090713 0.024393502588337258 0.028205960348802756 0.028131715916707406 0.006817849628898043 0.046337302301223786 0.075002269646453068 0.0060568941053699482 0.041778336834305374 -0.003474299497082175 0.0089186403128154144 0.04640782711175212 0.047114007925496672 0.087536466157564052 0.043004721562226136 0.040865274840889046 0.060665341244981061 -0.0059904742652002463 -7.1835595190394386e-05 0.010806376222240899 0.055542159399081366 0.018112008027260044 0.065160499056196752 0.085098801629731699 0.016770337363008859 0.036755568257673753 0.049317327350523826 0.0042807050790654609 0.038773816901575005 0.060402529670801626 0.014594536650645371 0.026351114555719125 0.0051649136907009245 0.024308202315162217 0.039622098183313692 0.00068342308640151827 0.052797632276472273 0.0066486032506058055 0.0108158685852052 0.049091304212489729 0.014212947344809443 0.036033696947864013 0.039549004861626338 0.011244747102691615 0.011518190829516163 0.048391644753011137 0.002672058028596045 0.040835272858957411 0.0047773724869750178 0.03930595469437298 -0.0057567268463444522 -9.5537074320102403e-05 0.019918239689582 0.0036185756315002156
leaf_count=37445 1707 403939 1739 1197 4974 1821 14487 1163 1165 3803 1100 13462 1061 1016 1524 1711 1091 1745 1178 1787 1994 1379 8528 1092 31689 3459 1147 1205 1250 1051 1358 1581 147259 21502 3928 1000 1259 1017 1229 1670 1000 1007 3944 1537 1020 1338 4704 6007 2275 1071 32312 1019 11332 1491 1705 1343 1431 1019 4585 7235 1078 4416 1439 1042 1206 68847 82947 1501 8300
internal_value=0 -0.304253 4.00273 0.156364 3.46945 2.33434 -0.0716586 6.38503 -0.639787 4.4794 8.50745 1.05355 4.18981 3.96379 3.66058 -0.175674 0.198972 -0.356815 3.35689 1.57254 4.38672 5.03042 -0.388123 6.4464 -0.703467 0.752189 4.4953 5.5309 6.80706 1.07547 0.926639 4.16468 -0.531517 0.413031 0.595697 2.96118 2.04455 3.92151 6.82108 3.29569 -0.103235 2.20627 0.115806 1.88578 2.27059 3.45943 2.63348 0.978854 1.81912 1.41946 0.438229 0.367434 1.05377 2.78721 3.26666 2.92877 0.939612 1.58983 1.73681 0.290061 3.07384 1.00798 1.26726 2.57226 1.72934 -0.753087 0.024281 0.1653 -0.472726
internal_count=991863 936738 55125 387054 45888 23121 311809 9237 549684 22767 3492 75245 21028 19967 17859 287151 92174 194977 16335 17636 5485 5745 193232 2108 519782 58301 6123 3633 2455 24658 23607 4366 155787 29902 52816 5145 16944 2276 2329 3664 38696 5485 90463 5465 4145 2358 10212 7007 9120 7762 47351 46154 13842 2510 6409 2490 12491 4478 6016 28737 2785 6691 6425 2481 14668 481086 84038 6475 77147
shrinkage=0.01


Tree=6
num_leaves=70
num_cat=0
split_feature=270 242 2 67 256 244 109 109 146 141 242 283 210 141 37 277 37 31 251 86 146 228 128 258 48 249 115 256 217 50 294 278 44 10 119 141 99 19 89 259 2 246 41 18 266 67 16 60 115 40 8 143 114 44 105 141 60 50 101 42 291 34 9 31 243 83 45 18 85
split_gain=19289.6 2362.78 1444.81 1435.14 962.802 832.467 665.121 617.577 551.684 534.589 479.224 467.143 359.086 333.596 321.4 342.92 316.688 313.458 305.896 299.456 287.507 276.326 302.641 266.978 261.22 238.766 230.315 226.596 206.429 205.371 286.326 201.219 194.905 193.802 193.65 193.108 181.314 280.567 179.479 176.32 174.81 162.024 158.681 153.146 152.226 148.53 146.36 140.138 137.026 132.592 130.247 128.776 128.156 124.914 124.288 120.383 118.857 118.386 184.566 117.493 151.933 117.905 114.506 111.452 110.125 109.589 108.601 108.027 123.054
threshold=53.500000000000007 7.5000000000000009 37.605000000000011 34.500000000000007 27.500000000000004 7.5000000000000009 38.005000000000003 38.105000000000011 2.0650000000000017 0.98202238112552032 62.500000000000007 1.5000000000000002 1.599999999999999 0.58784863137898291 -1.5349999999999999 1.0000000180025095e-35 -123.96499999999999 12.350000000000003 55.500000000000007 0.54500000000000015 1.5550000000000037 1.0000000180025095e-35 7.6250000000000009 49.500000000000007 0.51500000000000012 45.500000000000007 1.6850000000000003 170.50000000000003 0.044999999999999991 100.50000000000001 8.5000000000000018 4.5000000000000009 52.085000000000008 0.55500000000000016 0.67500000000000016 0.86088591042824458 2.2050000000000005 1.2350000000000001 30.350000000000005 6.5000000000000009 38.070000000000007 35.500000000000007 35.625000000000007 82.500000000000014 16.500000000000004 83.250000000000014 78.250000000000014 5.3050000000000006 1.6850000000000003 14.750000000000002 5.6000000000000005 201.50000000000003 203.25000000000003 45.085000000000008 9.1250000000000018 0.98202238112552032 8.2250000000000014 115.25000000000001 59.500000000000007 36.910000000000004 2.5000000000000004 77.445000000000007 17.750000000000004 11.220000000000001 5.5000000000000009 440.50000000000006 133.62500000000003 110.25000000000001 0.35500000000000004
decision_type=2 2 10 10 2 2 10 10 10 8 2 2 10 8 2 2 2 10 2 10 10 2 8 2 8 2 10 2 10 10 2 2 8 8 10 8 8 10 8 2 10 2 8 10 2 10 10 8 10 10 8 2 8 8 8 8 8 8 10 10 2 2 10 8 2 8 8 8 10
left_child=1 3 4 7 10 -6 18 14 13 19 12 -12 21 51 16 47 -1 -7 26 23 24 45 -23 40 -15 39 52 46 64 -26 -31 34 -18 59 49 -28 37 -21 -32 -8 42 63 -5 -38 -35 -2 -19 -16 55 54 -42 -4 -3 -44 -11 -49 -47 58 -41 61 65 -9 -50 -37 -24 -61 -33 -55 -69
right_child=2 6 8 9 5 17 25 33 -10 31 11 -13 -14 20 15 -17 32 27 -20 36 -22 22 28 -25 29 -27 35 -29 -30 30 38 66 -34 44 -36 41 43 -39 -40 57 50 -43 53 -45 -46 56 -48 48 62 -51 -52 -53 -54 67 -56 -57 -58 -59 -60 60 -62 -63 -64 -65 -66 -67 -68 68 -70
leaf_value=0.0025453715834349868 0.022763001717001581 -0.0078091386674483286 0.022878076980879226 0.029978366806569193 0.057185784767084975 0.0081255732699863047 0.033020023908463092 -0.0033043256016553569 0.089543709013921197 0.039279600080996298 0.097782450084765091 0.037921913750988141 0.071780879713425713 0.076872460943057219 0.027468190382446443 0.03234035885563772 0.0072712696632900491 0.012293541306773828 0.027358459247775468 0.016584939186530596 0.077394580399993723 0.072700420445901512 0.022908821339993991 0.033187190628379597 0.020099292694483385 0.033838425174093259 -0.005072119433705358 0.05636260489456249 0.062594758002259429 0.029762889008452764 0.048097875709168111 -0.00020340527230867895 -0.0057537788886078299 0.016104204931040464 0.049857565537907517 -0.0032579237622169166 0.034745625333737901 0.062572231599557729 0.083293039851141309 0.0044761493748716593 0.010786317602753984 0.03326685089483479 0.029028740123758855 0.0057092608872442519 0.046168716975899485 0.055405061867346943 0.038661501440191634 -0.001482766787561203 0.03159977617953795 0.041002721170930768 0.041123839477086074 0.046304210066755822 0.0039276711501692943 -0.00061604732639440813 0.012081812590943524 0.0057664837102393346 0.025928323846100842 -0.00039176724733824581 0.038246531829287667 0.0026192757763848916 0.033771771340564666 0.019569933958005072 0.0063570338591379975 0.010077049370014192 0.040773663487749578 0.023280704665649667 0.024359132511794945 0.0016333263055669351 0.01205421799295116
leaf_count=37324 7764 427203 1883 1086 1967 13177 1022 7611 1389 1091 1025 1013 1150 1185 1025 1698 6734 3026 1290 1652 1849 1220 2557 1685 1107 1339 68205 1023 1141 1556 1192 2232 148702 5542 1822 8768 1208 1082 1062 4054 2241 1012 1002 3967 1061 1221 1497 65902 1185 1738 1108 1870 5293 26627 3810 16060 1080 24198 1132 5331 1445 1448 4834 5998 3530 1784 1583 14383 10862
internal_value=0 -0.289757 3.75643 0.154965 3.1079 1.98198 -0.616178 -0.0839182 5.51035 1.02695 4.03006 6.89996 3.7025 5.04318 -0.186084 0.179977 -0.363272 1.44839 -0.68392 0.760918 5.74932 3.4767 4.33539 0.574556 5.0549 0.429836 -0.694066 2.79775 3.82018 4.41146 5.10149 2.38326 -0.516791 1.03382 2.98536 -0.329061 2.05822 3.51602 6.50099 0.288261 0.484726 0.42129 0.380941 1.25879 2.0912 2.7277 2.11554 0.110503 0.0768647 2.41249 2.09085 3.4785 -0.765855 0.319383 1.81446 -0.00550999 4.16157 0.180874 1.20356 0.629152 1.23727 0.0393202 1.14294 0.220092 3.32316 0.797047 1.00769 0.269144 0.615112
internal_count=991863 936379 55484 386865 42391 20690 549514 307686 13093 79179 21701 2038 19663 11704 283464 90704 192760 18723 517769 66903 7951 18513 8448 58994 6102 31745 516479 5546 7228 4917 3810 12276 155436 24222 8461 83983 7909 2734 2254 30406 57309 15778 53960 5175 6603 10065 4523 89006 87981 6639 3349 3753 432496 52874 4901 81962 2301 29384 5186 17619 8560 9059 6019 14766 6087 7115 3815 51872 25245
shrinkage=0.01


Tree=7
num_leaves=70
num_cat=0
split_feature=38 242 2 67 256 244 109 41 242 217 72 141 37 7 37 2 55 283 31 141 68 217 240 85 9 9 268 114 145 0 272 14 292 85 10 19 11 103 155 66 49 72 197 114 65 34 93 40 55 109 13 36 44 11 112 90 287 268 103 49 40 9 71 7 0 65 60 285 18
split_gain=19439.1 2413.29 1431.64 1319.04 993.362 643.329 624.979 597.884 500.16 443.489 442.892 423.46 324.948 451.98 312.997 310.846 323.315 297.099 276.575 273.049 272.524 293.591 260.107 248.743 246.868 245.352 226.553 225.075 218.772 205.792 204.701 248.24 246.201 215.491 199.558 185.434 183.887 180.159 179.335 174.021 167.411 205.955 163.199 212.122 158.703 239.442 186.304 157.52 164.997 156.447 156.183 151.724 149.41 148.452 140.758 165.272 139.093 135.987 165.208 133.796 246.771 132.957 156.658 130 128.863 128.08 127.117 124.964 120.868
threshold=56.500000000000007 7.5000000000000009 37.605000000000011 39.500000000000007 27.500000000000004 6.5000000000000009 38.005000000000003 38.265000000000008 62.500000000000007 0.069999999999999993 7.8250000000000002 0.90723727968074497 -0.81499999999999984 42.750000000000007 -123.96499999999999 38.395000000000003 32.125000000000007 1.5000000000000002 12.350000000000003 0.51641268375279015 58.500000000000007 0.034999999999999983 7.5000000000000009 0.50500000000000012 20.950000000000003 41.500000000000007 44.500000000000007 203.25000000000003 4.6000000000000005 92.750000000000014 65.500000000000014 88.500000000000014 7.5000000000000009 0.49000000000000005 0.55500000000000016 1.6850000000000003 7.2250000000000005 84.250000000000014 6.9050000000000011 2.4050000000000007 187.50000000000003 9.1250000000000018 12.125000000000002 92.625000000000014 8.7800000000000029 62.965000000000011 8.1250000000000018 11.610000000000001 29.350000000000005 37.855000000000011 97.425000000000026 1.0000000180025095e-35 53.085000000000008 7.4350000000000014 55.085000000000008 44.95000000000001 7.5000000000000009 37.500000000000007 143.12500000000003 397.50000000000006 14.105000000000002 25.950000000000003 10.125000000000002 38.250000000000007 116.25000000000001 1.1050000000000002 5.5050000000000008 2.5000000000000004 106.75000000000001
decision_type=2 2 10 10 2 2 10 10 2 10 8 8 2 8 2 10 8 2 10 8 8 10 2 10 8 8 2 8 10 10 2 8 2 10 8 10 8 10 10 8 10 10 10 10 8 2 8 10 10 10 8 10 8 10 8 10 2 2 10 10 10 10 8 8 10 8 8 2 10
left_child=1 3 4 7 8 -6 27 12 10 15 -2 23 14 -14 51 30 -17 -10 -7 -12 56 24 38 49 -22 44 64 35 40 -29 31 32 -4 53 37 -3 -16 -9 -13 68 -20 -42 -26 -44 45 46 -25 48 -27 63 -51 -1 -38 -33 55 -37 -21 -39 -59 66 -61 62 -53 -5 -8 -45 -15 -48 -36
right_child=2 6 9 11 5 18 26 34 17 -11 19 22 13 59 36 16 -18 -19 28 20 21 -23 -24 25 42 47 -28 29 -30 -31 -32 33 -34 -35 39 54 52 57 -40 -41 41 -43 43 65 -46 -47 67 -49 -50 50 -52 61 -54 -55 -56 -57 -58 58 -60 60 -62 -63 -64 -65 -66 -67 -68 -69 -70
leaf_value=3.6770712510715964e-05 0.067904507041259471 -0.0078410064697997644 0.046591437560867068 0.019747001010233457 0.051476636707474155 0.0085809578903227029 0.0003830155962553345 0.031608107712976952 0.087401873130561039 0.084161426355114519 0.015626584915359249 0.014869018552016481 0.03730613022474534 0.025527198014111213 0.025797872615471475 0.049024183116769635 0.091819836765524451 0.042138419531769486 0.0048192930691958137 0.0099386669136706223 0.063376142644970143 0.064074573315588162 0.050503148175011621 0.052413206604231155 0.055525980483770561 0.057809710218181785 0.026824137506928719 -0.0021908191771733386 0.052793758270226386 0.026437631125051465 0.024862369300271702 0.041559490837546405 0.080157671673681027 0.057165300672640154 0.052969901286961094 0.0013853038347717791 0.0047663581956435518 0.0018061172660442546 0.040819362473511145 0.012203816976762554 0.05094896491815578 0.013915883609497873 0.051634025706738924 0.041384857817843672 -0.0028596351985018566 0.0041407875124846198 0.00067005003256773513 0.01165175304272918 0.020303642168971004 0.039518612088543771 0.0091746710891274074 0.041338475861632626 -0.0058259170940661098 0.014257262603382391 -0.0048602243568625289 0.033331938815887086 0.038643462830746371 0.0028119233043837582 0.042417095177885951 -0.0033271739638802717 0.040554173316118512 -0.0090308949997758934 0.010841265492664485 0.0010183727724670728 0.016485767790780714 0.019798873596212872 0.00023682586078768454 0.032543156265568349 0.018967937943927423
leaf_count=29176 1506 428726 1949 2061 1903 13737 26629 1295 1095 1197 3336 14476 1618 1018 1098 1397 1003 1038 2058 2122 1213 1735 1141 1178 1073 1318 2053 4482 1053 1997 1710 1785 1393 1571 1161 6201 7846 16823 1375 4367 1236 1573 1415 1511 3850 4745 1218 1432 1052 1087 4560 1118 150186 1419 74126 1092 1023 1225 1026 1555 1310 1449 5665 34292 3020 5275 82072 1378 1040
internal_value=0 -0.302508 3.63153 0.146381 3.00407 1.8928 -0.634624 -0.0768372 3.90636 5.30714 3.5755 1.00483 -0.181969 0.195116 -0.355638 4.92263 6.76257 6.67122 1.44758 3.2934 3.64482 4.07651 1.9803 0.699232 3.65286 1.45368 0.37798 -0.700962 2.649 0.678863 4.41091 4.82265 6.09271 3.9041 0.96415 -0.719643 -0.505854 0.599402 1.73027 2.05593 2.00197 3.06953 3.28736 2.962 0.947297 1.49522 2.85718 3.01032 4.12771 0.394425 1.51452 0.257684 -0.527692 2.94124 -0.385719 0.621016 1.95313 0.412154 2.08999 0.11341 1.69705 1.15137 1.58887 0.213131 0.206118 2.46434 0.0581657 1.77127 3.71557
internal_count=991863 934537 57326 386211 43902 21560 548326 311048 22342 13424 20209 75163 284111 87573 196538 12227 2400 2133 19657 18703 15367 12222 16992 58171 10487 16171 31702 516624 5920 6479 9827 8117 3342 4775 26937 510145 159130 20369 15851 6568 4867 2809 9274 8201 12369 8519 3774 3802 2370 42000 5647 37408 158032 3204 81419 7293 3145 19074 2251 85955 2865 8232 6783 36353 29649 6786 83090 2596 2201
shrinkage=0.01


Tree=8
num_leaves=70
num_cat=0
split_feature=38 242 67 2 249 250 41 2 72 89 143 141 281 250 247 5 107 263 37 277 37 199 52 42 99 141 34 66 44 46 2 69 69 46 114 112 240 204 132 268 268 159 8 115 2 247 41 44 88 45 32 299 60 27 244 23 160 168 116 268 156 104 2 232 80 69 116 34 249
split_gain=18565.1 2428.5 1242.42 1181.83 831.706 854.986 596.257 573.071 565.008 456.7 436.39 431.664 384.91 352.615 306.216 356.677 295.68 295.099 289.938 384.144 310.14 275.123 266.219 265.44 301.523 252.728 246.67 269.565 251.535 253.949 234.38 231.118 214.398 213.724 177.045 171.686 170.85 188.15 169.932 164.862 160.235 158.785 156.826 147.703 146.559 144.534 142.152 140.873 136.286 134.973 132.024 146.027 131.189 127.956 126.312 126.235 151.015 125.153 123.288 123.027 122.842 122.841 116.383 114.328 124.619 111.081 110.493 132.427 108.458
threshold=56.500000000000007 7.5000000000000009 34.500000000000007 37.910000000000004 53.500000000000007 7.5000000000000009 38.105000000000011 37.855000000000011 7.7250000000000005 32.350000000000001 151.50000000000003 0.94633256528417831 6.5000000000000009 7.5000000000000009 19.500000000000004 56.085000000000008 17.325000000000006 199.50000000000003 -1.9049999999999996 1.0000000180025095e-35 -123.96499999999999 46.500000000000007 0.79000000000000015 37.395000000000003 1.7550000000000001 1.0105541631857424 73.00500000000001 1.0950000000000004 61.085000000000008 84.125000000000014 37.855000000000011 181.25000000000003 87.250000000000014 96.625000000000014 101.12500000000001 53.915000000000006 6.5000000000000009 6.8400000000000016 30.525000000000002 43.500000000000007 45.500000000000007 8.2500000000000018 5.6000000000000005 1.7450000000000003 38.340000000000011 3.5000000000000004 37.660000000000004 45.085000000000008 97.02500000000002 110.87500000000001 350.50000000000006 7.5000000000000009 7.0250000000000012 0.21500000000000002 8.5000000000000018 1.8750000000000002 56.250000000000007 21.875000000000004 1.6850000000000003 30.500000000000004 0.70000000000000007 111.25000000000001 38.460000000000008 10.710000000000003 85.125000000000014 143.12500000000003 1.2150000000000001 65.995000000000019 34.500000000000007
decision_type=2 2 10 10 2 2 10 10 8 8 2 8 2 2 2 10 10 2 2 2 2 10 10 10 8 8 2 10 10 10 10 10 10 10 10 8 2 10 8 2 2 8 8 10 10 2 10 8 8 10 8 2 8 8 2 10 10 10 10 2 8 10 10 8 10 10 10 2 2
left_child=1 2 6 4 8 12 18 25 -2 23 -10 22 -6 -11 15 -7 -16 21 20 52 -1 26 30 24 -5 45 28 33 29 -12 40 50 57 -28 -24 -22 37 -13 -15 49 47 -31 -32 -27 59 -3 -35 -4 -29 -9 -30 65 60 66 -45 -46 -57 -8 -47 -34 -20 -42 -51 -60 -65 -52 -49 -68 -37
right_child=3 7 11 9 5 14 32 39 10 13 17 36 -14 38 16 -17 -18 -19 19 -21 35 -23 34 -25 -26 43 27 48 31 41 42 -33 44 46 -36 68 -38 -39 -40 -41 61 -43 -44 54 55 58 -48 53 -50 62 51 -53 -54 -55 -56 56 -58 -59 63 -61 -62 -63 -64 64 -66 -67 67 -69 -70
leaf_value=0.0024365454282955015 0.080869964659366148 0.00085424604654685363 0.029087172975025572 0.07260447510490875 0.075338693565841219 0.065614678821372244 0.01425892009854131 0.027944874749578071 0.063945582969504713 0.096566339242893859 0.071643974916890507 0.015238660044647726 0.03229452021893961 0.073494595462708839 0.0084084522913413558 0.020985019219721419 0.036192777003184719 0.059944636819487702 0.0023017568675318253 0.032910163780375618 0.0086345069935930639 0.055273375193351883 0.050335673600503908 0.024957079398379056 0.033452895639980489 -0.0033556509299102213 0.052515904573254613 0.020552844803124529 0.0056489157950241229 0.022073443582964355 0.011040555234042501 0.051726515200384564 0.00053309815482566799 0.003297006368925038 0.013701752113529144 -0.0060245712295298294 0.043131706384664618 0.045330115372404646 0.040207512127312092 0.021280408297250818 0.038724827172816723 0.051276076254988347 0.035314331335742064 0.031387816732532728 0.0062173593147835495 -0.0082281757983130241 0.036535997778058042 0.0053221883268514594 -0.0048327565674041928 -0.0014569150578928459 0.011178863100781268 0.041636968607169957 9.7840447300599282e-05 0.0015444389688796382 0.004251270004572507 0.038871324598476961 0.0040638231820228805 0.040576282849048885 -0.0073005262018625448 0.012339765670864844 0.029422723320926658 0.0065640381197847432 0.011545854456212064 0.014180623803642906 -0.002709900519399623 0.035213098210004144 0.0084140436610363883 0.045176564659748245 0.016362738053323354
leaf_count=36055 1044 11911 1096 1376 1230 1002 2581 1010 1890 1095 1109 12416 1689 1012 15527 3303 1899 1513 2048 1694 4672 1744 1055 1757 1206 31546 1263 1566 1352 1380 4177 1396 19170 1098 1622 142163 1257 1014 1005 2482 1171 1519 1971 1076 3284 396559 1017 3518 1811 21742 2197 1922 82587 46258 5950 1890 1011 1369 42638 6368 1570 1254 4496 2806 26013 1234 1049 1014 1144
internal_value=0 -0.301285 0.147712 3.48935 3.08773 2.16576 -0.0762358 -0.636313 3.85317 5.58461 3.64593 0.951901 5.07881 7.20657 1.61675 3.1929 1.18484 3.3873 -0.200796 0.15074 -0.375107 3.18557 0.683966 4.33816 5.46602 -0.698222 2.95998 1.99038 3.49554 4.7457 0.580933 2.83802 0.810887 3.25686 2.83319 -0.533565 2.02405 1.77563 5.74044 0.364902 0.425747 3.75021 1.89743 -0.109237 0.602119 -0.747503 1.98542 0.338654 0.731103 0.191227 2.34436 2.79257 0.0727481 0.282649 0.861502 1.60031 2.6977 2.35668 -0.769099 0.351271 1.43415 2.21852 0.0854394 -0.476049 -0.105046 1.98712 1.32465 2.6534 -0.582367
internal_count=991863 934707 386478 57156 49705 24650 307606 548229 25055 7451 24011 78872 2919 3112 21731 4305 17426 22121 271933 87899 184034 20608 64185 4339 2582 518499 18864 6755 12109 4008 61508 8101 35673 3378 2677 147979 14687 13430 2017 29730 55360 2899 6148 38572 31723 479927 2115 52935 3377 27248 6705 5353 86205 51839 7026 6185 2901 3950 468016 25538 3618 2425 26238 71457 28819 3431 5581 2063 143307
shrinkage=0.01


Tree=9
num_leaves=70
num_cat=0
split_feature=38 2 250 101 2 256 244 36 3 250 38 65 11 107 16 31 31 109 282 36 119 114 146 204 114 101 36 43 258 96 145 9 65 256 37 96 125 161 249 155 160 11 37 85 31 273 251 247 59 38 248 99 36 96 58 147 118 256 72 240 28 45 53 115 16 259 275 110 74
split_gain=17255.8 1783.93 1258.26 1038.81 1015.14 734.123 570.109 455.375 392.224 360.517 318.248 315.183 309.139 380.929 329.046 300.498 298.682 288.922 285.917 277.6 526.106 273.836 246.132 233.981 229.083 225.646 220.999 282.593 217.195 211.546 202.75 202.575 282.298 202.486 187.314 189.162 178.085 175.423 173.287 158.587 178.63 227.4 157.47 156.602 154.475 152.912 149.95 147.164 146.179 145.576 143.564 141.011 139.256 130.081 128.701 130.876 166.412 128.676 137.068 127.461 127.184 154.364 120.805 110.959 110.021 144.776 110.255 107.542 106.241
threshold=56.500000000000007 37.805000000000007 7.5000000000000009 40.500000000000007 37.605000000000011 26.500000000000004 6.5000000000000009 1.0000000180025095e-35 241.00000000000003 4.5000000000000009 190.50000000000003 2.3250000000000006 7.3250000000000011 9.2500000000000018 91.500000000000014 12.350000000000003 14.325000000000001 38.735000000000007 13.500000000000002 1.0000000180025095e-35 0.44500000000000006 93.585000000000022 2.0999999999999983 6.8650000000000011 99.625000000000014 59.500000000000007 1.0000000180025095e-35 105.08500000000002 90.500000000000014 3.0250000000000004 4.7000000000000002 42.500000000000007 4.705000000000001 112.50000000000001 -0.014999999999999998 3.3250000000000006 28.750000000000004 0.87500000000000011 36.500000000000007 0.09999999999999977 25.250000000000004 7.4450000000000012 -649.6099999999999 0.50500000000000012 11.350000000000003 7.5000000000000009 9.5000000000000018 2.5000000000000004 8.7750000000000021 24.500000000000004 19.500000000000004 1.655 1.0000000180025095e-35 5.3500000000000005 63.500000000000007 36.750000000000007 143.50000000000003 154.50000000000003 8.3100000000000023 3.5000000000000004 25.725000000000005 147.12500000000003 97.925000000000026 1.5950000000000004 164.50000000000003 10.500000000000002 29.500000000000004 35.340000000000011 9.3250000000000011
decision_type=2 10 2 10 10 2 2 8 8 2 2 8 10 10 10 10 10 10 2 8 10 10 10 10 8 10 10 8 2 8 10 8 8 2 2 10 10 10 2 10 10 8 2 10 8 2 2 2 10 2 2 8 10 10 10 10 10 2 10 2 10 10 8 10 8 2 2 8 8
left_child=1 2 3 19 5 12 -7 25 36 18 22 17 13 -2 24 -8 28 45 -6 38 42 23 33 54 29 48 -10 -28 -16 -14 57 60 52 39 43 -36 47 -27 53 -11 -41 -42 -21 67 -38 -9 62 -4 -3 -50 -45 -31 -33 -1 55 -5 -57 58 -17 -26 61 -22 -13 -44 65 -47 -66 -23 -46
right_child=4 7 8 21 9 6 15 11 26 10 -12 46 14 -15 16 30 -18 -19 -20 20 31 34 -24 -25 59 37 27 -29 -30 51 -32 32 -34 -35 35 -37 44 -39 -40 40 41 -43 63 50 68 64 -48 -49 49 -51 -52 -53 -54 -55 -56 56 -58 -59 -60 -61 -62 -63 -64 -65 66 -67 -68 -69 -70
leaf_value=-0.0062233704152154581 0.029898602857248706 -0.0033169893490436033 0.0019114238943815553 0.0075598292372870378 0.078596022923963907 0.047457105787244477 0.0080053809606428234 0.042825580413297537 0.0012366493854173728 0.023423066806329645 0.06912997476499011 0.035325932590284603 0.054680387720746328 0.070847522608942934 0.020032774921319135 0.031281399383882677 0.075483014156845413 0.048127447963926713 0.045623347047505015 0.025920707909917292 0.029767599541565812 0.023138792083270868 0.062093110003156919 0.048403019118620508 0.020352407478277951 0.036444697563993843 0.047335168932622691 -0.0010690128711084346 0.053969703372259821 0.016579244644215528 0.051360869312587133 0.020672221594282919 0.0073698401728274337 0.008072556012184531 0.0091936143573554448 0.039664299784976036 -0.0061328577115784925 -0.00026032016427402399 0.022545127610275023 0.028560062479554876 0.06435889268248797 0.030847155326731192 -0.0037274433263152526 0.0085300735217526385 0.024449374827020344 0.045534535082528506 0.0054510376215320582 -0.0075415292446626009 -0.0053167588097494337 0.02964755259874944 0.036005873822187819 0.045844113408034709 0.049774686258434987 0.017774533609223344 0.037530911001459923 0.0055472105087754952 0.038529498481244671 0.040457023807862209 0.0045960566704909443 0.042577812198486546 0.0013562989271421414 -0.0035219037658288837 0.012975585619179164 0.0051966373246614319 0.0019429137569646532 0.012324129674716452 0.026105427404791062 0.00021698633973775303 -0.00081976128562329098
leaf_count=99389 1559 23166 9869 8657 1600 1903 13733 1075 5611 2158 1127 1439 1860 1595 1358 1350 1005 1821 1586 1043 2018 1077 1001 1000 9780 1529 1438 1116 1386 1610 1004 2344 8465 1004 3432 1549 67444 1180 1089 1900 1805 1153 118302 8719 1001 1097 20902 410333 1137 1488 1024 1016 1436 1294 1080 1330 1802 1034 2469 1013 22560 1262 8973 8328 3959 1666 1313 28936 41161
internal_value=0 -0.298662 -0.398048 -0.0327983 3.30491 2.78394 1.83876 0.816225 -0.631094 4.65025 4.09012 1.28834 3.52786 5.21522 3.21427 1.41226 4.79356 2.32781 6.24218 -0.240682 -0.0507178 0.835066 3.71316 1.69848 2.79137 0.0842647 0.962349 2.69736 3.75163 3.93391 2.63729 0.717181 1.49985 3.33943 0.550032 1.87478 -0.65837 2.04051 -0.55527 3.68789 4.27214 5.16895 -0.28727 0.381006 -0.383512 1.78408 0.909823 -0.731397 -0.138978 1.49656 1.16083 2.7933 3.16137 -0.590533 1.42881 1.21109 2.44772 2.02973 1.43559 2.27542 0.337719 1.70774 1.60997 -0.31197 1.43524 2.57772 0.80972 0.110318 -0.0225391
internal_count=991863 934854 864109 326136 57009 43675 21493 70745 537973 13334 10148 42245 22182 3154 19028 19590 3749 10931 3186 267530 165758 58606 9021 13869 15279 28500 8165 2554 2744 4486 5857 38085 12245 8020 44737 4981 529808 2709 101772 7016 4858 2958 127673 39756 109606 9110 31314 420202 25791 2625 9743 2626 3780 100683 12869 11789 3132 4853 3819 10793 25840 3280 10412 126630 8035 2763 5272 30013 42162
shrinkage=0.01


Tree=10
num_leaves=70
num_cat=0
split_feature=38 2 250 67 217 256 2 143 36 39 141 36 119 141 2 150 250 0 41 80 112 147 85 112 148 249 85 9 65 249 21 250 251 161 2 123 25 135 123 247 116 9 282 197 32 61 25 3 36 43 103 14 294 37 115 161 43 2 26 169 49 15 82 8 39 107 84 27 145
split_gain=16708.4 1679.78 1276.06 922.377 812.988 679.986 481.399 403.135 389.841 348.023 331.698 321.662 602.092 320.485 306.272 288.775 263.851 265.1 260.303 255.699 238.512 304.246 244.235 227.484 216.755 210.174 198.171 197.499 229.245 196.106 195.226 193.741 171.773 197.133 170.557 169.53 175.079 167.856 164.832 153.486 152.78 150.799 150.167 144.728 141.765 152.506 139.34 137.426 191.088 213.908 136.716 132.246 189.233 131.972 134.178 131.734 129.739 127.852 141.491 127.503 127.415 124.876 117.065 116.582 111.447 110.954 142.257 110.339 123.621
threshold=57.500000000000007 37.805000000000007 8.5000000000000018 40.500000000000007 0.089999999999999997 49.500000000000007 37.460000000000008 151.50000000000003 1.0000000180025095e-35 21.850000000000005 0.97804607673028732 1.0000000180025095e-35 0.44500000000000006 1.0420610349402921 38.395000000000003 16.500000000000004 5.5000000000000009 88.250000000000014 35.625000000000007 88.625000000000014 65.750000000000014 50.580000000000005 0.75500000000000012 69.415000000000006 33.585000000000001 43.500000000000007 0.50500000000000012 42.500000000000007 4.705000000000001 37.500000000000007 158.25000000000003 7.5000000000000009 65.500000000000014 0.59999999999999887 38.460000000000008 32.125000000000007 3.9750000000000005 59.500000000000007 33.45000000000001 2.5000000000000004 3.0650000000000004 41.500000000000007 5.5000000000000009 94.250000000000014 391.50000000000006 3.5750000000000006 4.6350000000000007 141.75000000000003 1.0000000180025095e-35 105.08500000000002 191.25000000000003 79.500000000000014 3.5000000000000004 -649.6099999999999 1.9950000000000003 0.87500000000000011 92.835000000000022 37.355000000000011 0.92500000000000016 20.125000000000004 144.50000000000003 25.250000000000004 1.2350000000000001 0.15000000000000005 19.250000000000004 14.750000000000002 182.50000000000003 0.18500000000000003 0.11500000000000023
decision_type=2 10 2 10 10 2 10 2 8 10 8 8 10 8 10 10 2 10 8 10 10 10 8 10 10 2 10 8 8 2 10 2 2 10 10 8 10 10 10 2 8 8 2 8 8 10 10 8 10 8 8 8 2 2 10 10 10 10 8 8 8 10 8 10 8 10 10 8 10
left_child=1 2 3 11 5 7 9 15 25 31 39 29 53 18 20 -2 17 -6 -5 24 21 32 30 -8 59 37 40 43 50 -1 57 -7 38 -34 51 -25 -37 -3 -9 -4 67 -28 56 -14 -43 -46 65 -12 -49 -50 -29 52 -21 -13 -55 -39 62 -22 -59 -10 -42 -41 -15 -32 -62 -33 -67 68 -20
right_child=4 8 10 13 16 6 23 14 19 -11 47 12 27 42 -16 -17 -18 -19 26 34 22 -23 -24 35 -26 -27 41 28 -30 -31 63 46 33 -35 -36 36 -38 55 -40 61 60 44 -44 -45 45 -47 -48 48 49 -51 -52 -53 -54 54 -56 -57 -58 58 -60 -61 64 -63 -64 -65 -66 66 -68 -69 -70
leaf_value=-0.0060369736747174245 0.038402218581364417 -0.0023807921564615413 0.0020082215640641406 0.033873546750325091 0.047181838740781877 0.035096369160245694 0.057393931677006349 0.016736188624458383 0.027209465485944814 0.049186427391447005 -0.0022839173815910737 0.022096430205493119 0.0027757137316252361 0.0060549774914008606 0.059126361524719069 0.080916421743585848 0.03331080996863673 0.079046899525060291 0.0046042197211033191 0.0081804988582387436 0.015902969074188859 0.063564033954930613 0.047689410886084964 0.013700293141202141 0.015457411022707229 0.027981577100534793 0.0072172134779305624 0.016144157362978258 0.008282361125369106 0.024444548844598742 0.02664452294418395 0.0052694969192321308 0.030985115319700839 0.066040703338709927 0.019697952735385899 0.026121774676495645 0.0560817427227897 0.031635921643417268 0.042072687048780574 -0.0080043856958486419 0.03172987878067747 0.0012282952033812642 0.0034556101910456984 0.029738278888991668 0.018786536689296477 0.052089794476005986 0.028868179809536737 0.00036081005016402922 0.042786457484883994 -0.00016142176677460984 0.042944075771509209 0.0044615533219791942 0.034807141439400467 -0.0036094048971284172 0.0068786734777740504 -0.0013885722293430225 0.042127283394947312 0.04636911187117411 0.023188410243400428 0.060577252872518778 -0.00041309031347419779 -0.0049820190583342912 0.032075417648154365 0.053188845729048209 0.027764926167890423 0.0047551446293370705 0.039238015490485202 -0.0013444850132847081 0.03312797702067348
leaf_count=107054 1001 24733 10617 1445 1582 1102 1250 2270 1257 1065 40415 1145 26455 1660 1258 1002 1293 1484 4180 4688 6784 1523 1843 1607 4324 1336 10311 2021 8928 1068 1166 12177 1231 1026 6737 1778 1129 1372 1498 346142 1469 1006 1700 1141 1711 1035 1706 5295 1334 1068 1981 22225 1903 132070 7157 1103 1771 1193 3983 1011 3046 106915 1622 1296 1003 1075 1008 32071 1008
internal_value=0 -0.292904 -0.38984 -0.0456597 3.23722 2.98949 2.14441 3.60034 0.784267 1.53852 -0.641044 -0.236872 -0.0426161 0.728992 3.38101 6.00425 5.4809 6.32478 0.544824 1.21783 3.20834 4.06471 2.78372 3.58206 2.5008 0.107283 0.460849 0.753746 1.50139 -0.568421 2.50315 1.2737 3.4541 4.74508 0.971671 2.93853 3.79492 -0.0433474 2.67906 -0.706137 0.201903 1.18337 2.14058 0.39162 2.35225 3.15592 1.03338 -0.0437907 0.844051 2.48267 2.9321 0.720129 1.60976 -0.282693 -0.304576 1.71208 2.72856 2.17739 2.86259 4.24209 1.33899 -0.728134 1.91291 4.063 0.661937 0.802458 2.19359 0.0295913 1.02294
internal_count=991863 936533 865844 354058 55330 50971 23897 27074 70689 18133 511786 289020 180898 65038 25071 2003 4359 3066 58285 42145 23813 7548 16265 5764 6592 28544 56840 40526 12930 108122 14422 17068 6025 2257 35553 4514 2907 27208 3768 463674 42777 14063 6753 27596 3752 2746 15966 48112 7697 2402 4002 28816 6591 140372 139227 2475 5053 11960 5176 2268 5518 453057 3282 2462 4049 14260 2083 37259 5188
shrinkage=0.01


Tree=11
num_leaves=70
num_cat=0
split_feature=38 242 101 250 282 256 109 109 75 214 141 37 7 37 36 247 5 112 141 242 75 41 109 9 44 169 107 114 249 169 119 54 27 115 37 14 59 23 115 6 10 34 33 81 74 107 37 137 292 37 247 6 36 48 133 76 40 96 134 247 31 0 73 92 133 60 119 198 141
split_gain=15679.4 2288.28 1092.14 818.899 696.812 578.473 543.383 518.864 442.553 401.251 345.551 317.916 355.686 297.016 270.912 254.081 227.154 221.56 216.19 213.682 232.848 213.713 213.64 212.522 204.268 192.381 189.82 185.859 182.187 180.236 210.779 259.099 176.513 175.262 156.102 153.31 149.832 148.972 212.607 144.484 143.022 187.37 209.075 140.113 139.697 137.026 135.937 133.989 167.724 174.485 132.414 130.178 129.098 137.575 146.814 175.312 127.819 127.453 118.891 115.176 112.785 112.558 111.641 111.223 120.864 109.932 109.265 112.162 108.341
threshold=56.500000000000007 7.5000000000000009 34.500000000000007 4.5000000000000009 4.5000000000000009 47.500000000000007 38.105000000000011 37.910000000000004 38.130000000000003 47.125000000000007 0.63561037535167786 -1.5349999999999999 43.250000000000007 -123.96499999999999 1.0000000180025095e-35 19.500000000000004 59.125000000000007 73.750000000000014 1.0105541631857424 62.500000000000007 37.760000000000012 37.625000000000007 37.855000000000011 31.250000000000004 52.085000000000008 21.875000000000004 17.325000000000006 99.625000000000014 20.500000000000004 25.875000000000004 0.43500000000000005 94.550000000000011 1.905 1.7450000000000003 -9.6449999999999978 18.250000000000004 8.4250000000000025 2.4250000000000003 2.5450000000000004 21.875000000000004 0.44500000000000006 70.585000000000022 170.50000000000003 1.6850000000000003 19.350000000000005 17.150000000000002 -0.054999999999999993 158.25000000000003 6.5000000000000009 -0.38499999999999995 3.5000000000000004 28.625000000000004 1.0000000180025095e-35 1.0950000000000004 1.5950000000000004 35.625000000000007 14.025000000000002 3.2750000000000004 1.2050000000000003 2.5000000000000004 11.925000000000002 84.750000000000014 20.550000000000004 29.250000000000004 3.5050000000000003 5.9050000000000011 0.90500000000000014 0.20000000000000065 0.86410405234276066
decision_type=2 2 10 2 2 2 10 10 10 8 10 2 8 2 8 2 10 10 8 2 10 8 10 8 8 10 10 10 2 10 10 10 8 10 2 10 8 8 10 10 10 2 10 10 10 10 2 10 2 2 2 8 8 8 10 8 8 10 8 2 8 10 8 10 10 8 8 10 8
left_child=1 2 6 4 -2 19 11 18 15 22 36 13 -13 52 -8 16 -7 -10 50 20 37 -21 27 -24 62 58 66 32 40 30 -12 -32 -4 -20 -25 -9 -6 38 39 -5 -11 42 -42 65 -29 59 -41 48 -22 -50 -3 -34 -1 -54 55 -55 -45 -27 -16 -37 -35 -18 -15 -52 -65 -14 -17 -68 -64
right_child=3 7 9 5 10 8 14 35 17 28 29 12 43 24 25 26 61 -19 33 21 47 -23 23 34 -26 57 -28 44 -30 -31 31 -33 51 60 -36 45 -38 -39 -40 46 41 -43 -44 56 -46 -47 -48 -49 49 -51 63 -53 53 54 -56 -57 -58 -59 -60 -61 -62 -63 68 64 -66 -67 67 -69 -70
leaf_value=-0.0023742617906052622 0.079452912753355462 0.00059786209582551951 0.028938329138359423 0.018288304400320969 0.036545378664489599 0.05278309713852871 -0.00099691393533878677 -0.0011540928304746764 0.058144535075567716 0.010121152819423133 0.026633400521090925 0.032084902978125641 0.022214164639117705 0.0008752002706124564 0.028313162211450256 0.0021486127043050078 0.007026588745843566 0.026580378147491094 -0.0040174095348770476 0.061082396159603224 0.022252490749291771 0.028061590121539623 0.010356000754337558 0.015675767560393874 -0.0056790054259962877 0.033358605854023497 0.029655813819323532 0.00069009779913822096 0.04532578427635478 0.063906052036125774 0.03848252421186147 0.072585130371719014 0.0063266782112633589 0.0020777453536143442 0.05059153942451939 0.027568065325047568 0.01388594191885989 0.0089027608960297738 0.051089451458881129 0.025478951207556701 0.01741798949975952 0.0082863609897721787 0.05842060892286214 0.0039588036547706703 0.018115264551152626 0.026831734596036154 0.050507025866637932 0.053100034128490396 0.060424764173594873 0.033154092142182401 -0.0082600154577437551 0.030943826405021892 -0.0034567785045147839 0.03721436175687496 0.033805667382644747 0.0053677207434866302 0.025635167596753723 0.0079091752064579419 0.0065274140887007408 0.0022679316274982911 0.02184295657807931 0.034145341154427675 0.0060421453946317965 -0.0054169118669110177 0.021296965862891263 -5.5992144064870272e-05 0.01034259532961463 0.034142681424563996 0.039034156656037579
leaf_count=17403 1340 11587 2251 5422 1859 1103 8895 31236 1121 5031 2060 1615 1108 4528 1438 7456 1527 2065 30246 1492 2352 1043 8787 1185 148859 3472 1814 35408 1301 1330 1989 1017 15974 4467 1205 1060 2161 1752 1229 2274 1040 1410 1220 4174 2584 1825 1174 1523 1103 2238 377374 1138 5629 1029 1298 12027 2123 1338 9176 8291 2413 1101 1188 78836 1010 81702 6290 1142 1005
internal_value=0 -0.299612 0.134205 3.04368 4.34204 2.63345 -0.0777094 -0.629105 1.87661 0.879992 3.81817 -0.176189 0.186454 -0.354745 0.947648 1.45954 2.95035 3.83553 -0.701454 3.28766 3.06137 4.79456 0.675165 1.55609 -0.506397 1.49619 1.07791 0.491205 2.16113 4.601 4.1099 5.0154 1.0571 -0.144661 3.34897 0.159139 2.44854 2.51695 2.80161 2.46508 1.79663 2.79452 3.97981 0.113795 0.19005 0.889196 3.41544 3.84637 3.43608 4.23094 -0.748047 0.803397 0.240573 0.644932 1.02875 0.789378 1.15456 2.64303 0.954134 0.523798 0.914767 1.87833 0.760314 -0.769362 -0.507265 0.028687 0.7951 1.40405 2.12705
internal_count=991863 934886 386541 56977 11756 45221 308007 548345 23619 78534 10416 283688 90722 192966 24319 20433 3731 3186 505933 21602 19067 2535 68532 11177 155580 15424 16702 57355 10002 6396 5066 3006 19363 37126 2390 42412 4020 11851 10099 8870 8701 3670 2260 89107 37992 11176 3448 7216 5693 3341 468807 17112 37386 19983 14354 13056 6297 4810 10614 9351 6880 2628 6721 457220 79846 82810 14888 7432 2193
shrinkage=0.01


Tree=12
num_leaves=70
num_cat=0
split_feature=271 242 67 2 2 109 107 256 151 244 263 214 244 194 141 36 10 249 141 275 36 169 141 71 53 169 42 263 109 21 18 89 115 106 14 294 271 113 19 209 112 9 250 273 22 141 116 109 41 266 263 258 52 9 151 127 58 131 0 113 7 45 36 115 107 287 158 98 49
split_gain=14177.9 2287.53 1116.26 896.996 561.936 559.322 470.228 444.745 433.281 393.786 363.694 358.915 292.957 277.742 263.587 258.925 520.823 302.327 243.557 228.776 225.526 224.744 218.869 205.841 179.822 174.312 172.763 212.316 177.81 168.701 166.872 163.932 160.045 156.761 151.78 189.104 149.097 145.978 142.288 131.992 128.889 128.762 127.806 126.6 123.367 136.529 121.511 120.26 148.005 117.862 114.105 111.745 117.204 138.875 125.587 233.009 145.403 114.745 110.896 133.668 110.672 119.143 158.183 110.333 107.699 106.261 124.128 157.347 105.821
threshold=52.500000000000007 7.5000000000000009 39.500000000000007 37.355000000000011 37.855000000000011 38.105000000000011 20.050000000000004 29.500000000000004 0.14999999999999999 5.5000000000000009 58.500000000000007 43.025000000000006 59.500000000000007 2.0000000000000018 0.58784863137898291 1.0000000180025095e-35 0.44500000000000006 37.500000000000007 1.0105541631857424 73.500000000000014 1.0000000180025095e-35 21.375000000000004 0.81681278814904401 9.4250000000000025 97.825000000000003 16.625000000000004 36.510000000000012 86.500000000000014 38.485000000000007 156.25000000000003 111.25000000000001 31.650000000000002 1.7450000000000003 10.625000000000002 125.50000000000001 3.5000000000000004 90.500000000000014 111.62500000000001 2.0650000000000004 16.250000000000004 79.585000000000022 8.5000000000000018 7.5000000000000009 87.500000000000014 1.405 0.72278244251529888 1.6850000000000003 37.675000000000004 35.710000000000008 21.500000000000004 129.50000000000003 47.500000000000007 0.35500000000000004 16.025000000000002 0.55500000000000016 7.9250000000000016 25.500000000000004 26.325000000000006 104.75000000000001 93.125000000000014 22.250000000000004 145.12500000000003 1.0000000180025095e-35 1.2150000000000001 10.540000000000001 1.5000000000000002 1.5050000000000006 29.225000000000005 319.25000000000006
decision_type=2 2 10 10 10 10 10 2 10 2 2 8 2 10 8 8 10 2 8 2 8 10 10 10 8 10 10 2 10 10 8 8 10 10 8 2 2 10 10 10 10 10 2 2 8 8 10 8 10 2 2 2 8 10 8 10 10 8 10 10 10 10 10 8 10 2 8 10 10
left_child=1 2 5 6 10 15 7 12 14 -9 18 22 25 -8 31 17 38 -1 46 -10 49 -22 47 44 -13 36 27 -16 30 37 43 -5 -20 -23 35 -6 -2 -27 58 -34 -33 64 -31 -28 45 -18 -3 48 -4 -7 -45 52 -24 54 55 -54 -56 -55 -17 -60 61 62 -26 -32 -25 -49 67 -67 -39
right_child=3 4 11 8 34 20 13 9 19 -11 -12 24 -14 -15 26 16 23 -19 32 -21 21 33 51 41 60 29 28 -29 -30 42 63 40 39 -35 -36 -37 -38 68 -40 -41 -42 -43 -44 50 -46 -47 -48 65 -50 -51 -52 -53 53 57 56 -57 -58 -59 59 -61 -62 -63 -64 -65 -66 66 -68 -69 -70
leaf_value=-0.0052499314510976985 0.0055127308971465918 -0.0078914063862036126 0.025843121705440546 0.015048412578997361 0.0055860370431111061 -0.0029971524998827952 0.03063651075655105 0.042543173822492071 0.04172750014391876 0.0088982416661661165 0.029761924007404312 0.038995737352990958 0.049143474015303917 0.070003574453193065 0.035566860414027478 -0.0035091191782069941 0.012058651374278353 0.03242932614359547 -0.0034600746435470581 0.072516624419144374 0.0087173454149709253 0.035508881601335342 -0.0018905026875262159 0.0043267215211111763 0.011890395315058319 0.042467064691711381 0.050848698297420274 0.070817777622596167 0.050173917019503245 0.058138344799050813 0.029247343900934308 0.050413440511651197 0.018537073712305906 0.0098288517642596152 0.00045627691228537239 0.031122002777014584 0.026966487955935259 0.018339786848228682 0.0084379932007748199 -0.001707425494501941 0.023718752622388345 0.0017789046562847364 0.028480488217163296 0.016260153603616965 0.010898276260064755 0.045429325581520213 -0.0044687350116683596 0.0039380386798825752 0.00039139399164796489 0.02245020858826249 0.04288586492517938 0.033350576689737323 0.015698145947065981 0.030969475987431144 0.00042822052296308906 0.053537551334689598 0.03262986775878126 0.0064584299087418751 0.029270473140575532 0.0014059992467928115 0.035759980786386258 0.007400793597360583 0.042956105935799321 0.0056664531671406929 0.036376321252652673 0.0071088452442976437 0.0044502669197557842 0.040064284285416807 0.037766153648352355
leaf_count=98067 2793 406371 1064 3065 5871 7991 1493 1116 1224 15722 1048 1933 1602 1004 1046 121796 1354 1036 31582 1338 10690 3140 2854 1151 1859 1286 1710 1077 1916 1007 2049 1070 3653 1793 22002 1975 1994 6308 6510 3338 1446 26378 1008 1005 12941 1271 73631 6744 29461 1067 1040 1083 1820 1044 2019 1247 1033 10059 1040 14183 1158 5780 1126 1096 1023 1197 2122 1768 1175
internal_value=0 -0.280646 0.151782 2.90503 -0.610927 -0.057936 2.2892 2.08056 3.85669 1.24732 -0.674197 0.919202 2.70437 4.71469 3.48485 -0.158033 0.00566946 -0.476733 -0.685878 5.79449 0.967876 1.45946 0.697421 0.709924 2.00636 2.43346 3.9801 5.40108 3.62598 2.85056 3.16101 2.4299 -0.106977 2.65883 0.367135 1.22278 1.47466 2.48777 -0.219885 0.893072 3.52938 0.328567 4.38151 3.94168 1.38855 2.83176 -0.735364 0.389851 0.14474 0.020537 2.99963 1.27298 1.14713 1.36327 2.18735 3.13504 1.15996 0.880843 -0.273751 0.334283 1.62977 1.35947 2.40081 2.12336 2.00676 0.998747 1.75828 2.68012 2.14979
internal_count=991863 936273 386802 55590 549471 311431 36508 34011 19082 16838 519623 75371 17173 2497 16520 286750 187647 99103 518575 2562 24681 15623 63515 44118 11856 15571 10939 2123 8816 10784 6900 5581 38573 4933 29848 7846 4787 8769 143529 6991 2516 28552 2015 3755 15566 2625 480002 42356 30525 9058 2045 21159 20076 17222 6119 3067 3052 11103 137019 15223 9923 8765 2985 3145 2174 11831 5087 2965 7483
shrinkage=0.01


Tree=13
num_leaves=70
num_cat=0
split_feature=38 242 67 217 2 109 41 256 145 214 36 119 143 242 155 2 232 115 258 66 249 37 197 2 41 263 31 170 275 9 42 143 103 65 268 87 75 103 229 5 23 0 3 86 110 142 42 254 97 63 116 106 171 156 45 44 41 90 50 17 145 18 37 70 145 37 53 37 4
split_gain=14169 2199.15 1079.81 714.249 581.621 546.24 537.885 417.479 378.116 364.072 299.813 491.865 279.279 265.245 255.87 238.286 238.189 228.783 219.257 199.211 198.908 198.895 196.262 193.833 188.203 181.366 180.621 202.784 179.792 179.788 179.479 166.71 217.998 162.102 160.304 156.338 159.251 168.898 153.275 137.559 147.959 137.507 136.437 158.234 132.934 132.02 127.127 125.033 120.197 119.658 118.759 116.727 113.231 112.324 185.545 109.35 106.031 105.199 103.559 103.353 100.586 99.5909 139.433 121.628 94.8665 134.84 94.7625 161.446 99.2144
threshold=55.500000000000007 7.5000000000000009 35.500000000000007 0.089999999999999997 37.305000000000007 38.005000000000003 38.265000000000008 27.500000000000004 5.8000000000000034 43.025000000000006 1.0000000180025095e-35 0.44500000000000006 153.50000000000003 61.500000000000007 0.30500000000000033 38.410000000000004 23.250000000000004 1.6850000000000003 70.500000000000014 1.5050000000000001 34.500000000000007 -649.6099999999999 77.750000000000014 37.855000000000011 35.515000000000008 194.50000000000003 10.710000000000003 97.585000000000022 152.50000000000003 31.250000000000004 36.805000000000007 193.50000000000003 155.25000000000003 2.4250000000000003 47.500000000000007 95.925000000000026 37.805000000000007 134.25000000000003 144.25000000000003 48.125000000000007 2.6500000000000008 116.25000000000001 105.12500000000001 0.79500000000000015 37.660000000000004 195.21904761904764 36.805000000000007 73.500000000000014 31.525000000000002 30.450000000000003 2.3050000000000002 7.9250000000000016 203.25000000000003 1.0000000000000009 155.12500000000003 47.750000000000007 37.555000000000007 34.225000000000009 311.50000000000006 7.6750000000000016 3.4999999999999996 112.25000000000001 -0.094999999999999987 136.25000000000003 0.70000000000000207 -0.28499999999999998 99.52500000000002 -0.044999999999999991 66.750000000000014
decision_type=2 2 10 10 10 10 10 2 10 8 8 10 2 2 8 10 8 10 2 8 2 2 8 10 8 2 8 10 2 8 10 2 10 8 2 8 10 8 8 8 10 10 10 10 10 8 10 2 10 10 10 10 8 8 10 10 10 10 8 10 10 8 2 10 10 2 8 2 10
left_child=1 2 6 4 7 17 10 13 39 23 20 21 -6 25 56 19 45 52 -16 31 -1 -12 66 24 -4 51 -19 -28 -21 -25 -8 -14 46 38 41 -11 -37 -38 -32 -9 60 -7 43 -26 50 58 -33 -17 -43 59 -23 -2 -3 64 -55 -44 -5 -54 -13 -35 -41 -57 -63 -64 65 -53 67 -18 -68
right_child=3 5 9 14 12 34 30 8 -10 35 11 16 15 -15 18 47 22 26 -20 28 -22 44 -24 29 42 -27 27 -29 -30 -31 33 32 -34 49 -36 36 37 -39 -40 40 -42 48 55 -45 -46 -47 -48 -49 -50 -51 -52 53 57 54 -56 61 -58 -59 -60 -61 -62 62 63 -65 -66 -67 68 -69 -70
leaf_value=-0.005726848103662017 0.040292317261567651 -0.0077630322079035299 0.032345190869590854 0.020586231428809287 0.060879786997995539 0.00033833399365501343 0.0019404080342135086 0.032868432279259653 0.048070596186735114 0.043833972308299177 0.027618666917867338 0.0078979563427861183 0.020783575830256387 0.044700475568802862 0.039492730813427114 0.059503163159892174 0.010099672602547325 -0.006075174128887445 0.071240894626041357 0.018796494307828839 0.024705752222198129 -0.0037324654105405954 0.041014682780247877 0.010842449684209131 0.0079707228487401523 0.04668890132288387 0.015483029062844794 -0.0013098629621600361 0.043814638865041257 0.036119333909432533 0.015952306847299737 0.047412211852193881 0.057115138615722864 0.010610866713760537 0.027852727954932273 0.012561762097264893 0.053006561653040379 0.017169369310959842 0.042976887971049871 0.0054812166587866942 0.032552278101816053 0.0062020371387506903 0.025096542361537046 0.03441079277343681 0.010188027861910965 0.0002337453762432895 0.026067227320877132 0.034414300057206929 0.036231605131817758 0.0010315593024321744 0.0080302555062802677 0.037882428784565783 -0.0024371007749578641 0.041935590671782923 0.012047257157039498 -0.0013704801881985484 0.043845905050723548 0.022040682296127222 0.033237124507231208 0.033781266151837956 0.022922701248085181 0.0007475009921886199 0.0087414217651977117 0.032176666880594354 0.013171924572639717 0.010961439786843661 0.021749350370391413 0.040916570422286275 0.0039869386910351204
leaf_count=96392 1006 424802 1051 1042 1030 27353 11502 1167 1002 1074 1144 5688 1996 1970 1010 1002 2693 51158 1395 7075 1074 123987 1239 5474 14028 1008 4738 27743 1068 1639 3322 1234 1613 3727 1190 8839 1004 1436 1479 14440 1108 2039 1040 1113 4192 27176 2824 1028 1058 5222 4844 1559 4877 1853 1306 24321 1170 1227 1027 1305 1508 10517 4882 1512 6939 1222 2111 1313 8736
internal_value=0 -0.294011 0.129336 2.76477 2.5445 -0.621261 -0.0823287 2.04278 1.31798 0.866472 -0.185143 -0.00761237 3.31571 2.67525 4.70163 3.14567 0.616567 -0.686123 5.85349 2.87925 -0.53242 -0.252495 1.34792 0.644864 0.501892 2.37137 -0.31777 0.126361 2.23077 1.70586 0.890668 3.52107 4.00144 1.39205 0.319386 1.93055 1.69105 3.2015 2.45789 1.06261 0.906214 0.206822 0.44073 1.01208 -0.281044 0.257389 3.29505 4.74786 1.64603 0.883055 -0.325713 2.18157 -0.760279 2.01712 3.00544 0.223922 3.40223 0.253267 1.18512 1.64175 0.735725 0.164004 0.589188 1.42955 1.69496 2.63886 1.10926 2.06259 0.747569
internal_count=991863 932288 386103 59575 54958 546185 308173 36088 19225 77930 281616 184150 18870 16863 4617 17840 49983 514545 2405 15810 97466 134167 16092 65577 58464 14893 83639 32481 8143 7113 26557 7667 5671 15055 31640 12353 11279 2440 4801 18223 17056 30450 57413 15141 133023 33891 4058 2030 3097 10254 128831 13885 430906 12879 3159 42272 2212 6104 6715 5032 15948 41232 16911 6394 9720 2781 14853 4006 10847
shrinkage=0.01


Tree=14
num_leaves=70
num_cat=0
split_feature=38 242 67 250 109 256 109 162 179 214 37 37 7 278 36 141 44 141 31 169 150 268 54 8 146 143 160 156 275 145 249 107 99 130 81 141 132 158 37 101 121 10 14 232 9 217 291 141 134 128 36 19 9 10 127 18 119 133 119 84 12 31 39 43 99 204 48 39 249
split_gain=13831.4 2243.59 1087.47 658.002 556.961 497.664 475.889 391.595 380.934 346.728 311.456 299.069 289.308 260.418 232.433 213.526 211.718 207.648 190.645 189.315 188.756 187.835 174.468 185.766 171.676 189.411 197.027 181.527 169.729 168.996 163.868 161.347 157.576 249.923 157.492 156.647 142.844 142.621 181.641 194.655 170.611 148.342 140.233 155.841 138.347 134.101 130.67 128.93 125.474 124.782 124.287 121.362 119.705 142.35 241.166 118.11 116.645 115.105 114.712 141.677 117.203 112.9 111.826 137.913 110.437 109.995 104.031 142.599 103.594
threshold=56.500000000000007 7.5000000000000009 34.500000000000007 4.5000000000000009 38.005000000000003 49.500000000000007 38.105000000000011 88.750000000000014 37.445000000000007 47.125000000000007 -1.5349999999999999 -123.96499999999999 42.750000000000007 5.5000000000000009 1.0000000180025095e-35 0.85458550260312383 52.085000000000008 1.0105541631857424 12.250000000000002 21.375000000000004 14.500000000000002 87.500000000000014 88.050000000000011 0.95000000000000007 2.1050000000000009 151.50000000000003 107.25000000000001 1.0750000000000004 45.500000000000007 1.7 20.500000000000004 18.715000000000003 1.2250000000000003 3.3750000000000004 1.6850000000000003 0.59814517516197474 26.625000000000004 2.5050000000000003 -2.9849999999999999 124.50000000000001 98.875000000000014 0.78500000000000014 18.250000000000004 17.150000000000002 19.050000000000004 0.01999999999999999 2.5000000000000004 0.97180258973194011 1.2050000000000003 9.0750000000000011 1.0000000180025095e-35 1.6850000000000003 18.250000000000004 0.35500000000000004 7.8250000000000002 109.25000000000001 0.79500000000000015 0.85500000000000009 0.49000000000000005 173.50000000000003 37.95000000000001 11.15 14.750000000000002 104.08500000000002 2.2050000000000005 0.69999999999999984 1.2150000000000001 13.205000000000002 28.500000000000004
decision_type=2 2 10 2 10 2 10 10 10 8 2 2 8 2 8 10 8 8 10 10 8 2 8 10 10 2 10 10 2 10 2 10 10 10 10 10 10 8 2 10 10 8 10 8 8 8 2 8 8 10 8 10 10 10 10 8 10 10 10 10 10 10 10 10 10 10 8 10 2
left_child=1 2 6 7 17 24 10 21 18 15 11 50 -12 -9 -8 37 -13 51 65 48 -10 45 -15 -24 25 -5 27 31 42 -29 58 49 33 -20 47 -23 -21 38 41 40 62 -4 -6 -44 -19 -2 -36 -14 -16 -27 -1 -3 53 -17 -55 -39 -49 -22 -11 -60 -61 -53 -40 -64 -52 -7 -57 -68 -18
right_child=3 4 9 5 28 8 14 13 20 30 12 16 34 22 19 52 68 44 32 36 57 35 23 -25 -26 26 -28 29 -30 -31 -32 -33 -34 -35 46 -37 -38 55 39 -41 -42 -43 43 -45 -46 -47 -48 56 -50 -51 64 61 -54 54 -56 66 -58 -59 59 60 -62 -63 63 -65 -66 -67 67 -69 -70
leaf_value=-0.0022027120941014553 0.013820786764103865 -0.0078195194680080043 -0.00091369140374004867 0.043488557460871838 -0.00089686890513303048 0.0047114334592778615 -0.00091458427643665218 0.065864266526759141 0.041147627524917726 0.0089569783406198561 0.028901693814386703 0.0079090289605740858 -0.0011511227504943965 0.023217019899342196 0.027252645444948636 0.0096411960872096209 -0.0058642978355698322 0.016922431900894958 0.017316362879870321 0.039474971190334968 0.0081691272604054819 0.027478633708275756 0.062546722945965527 0.036010528930394539 0.047383182383585354 0.018172571843614812 0.048445744413732859 0.022407671118259621 0.02979470528568319 0.048922288845146364 0.041900178551521117 0.040605402853430138 0.0098972480623993938 0.055606264149764009 0.0075323986437542088 0.05518527123569901 0.015607747967320186 -0.0055020629703896309 0.0017232031456092093 0.035967047207603145 0.033067992887455537 0.024849731825862365 0.005415004922385851 0.03089407740819753 -0.0025622371608396278 0.036512740177837545 0.035214406292465306 0.0040691855935583495 0.0051417631771607441 0.0384354799836805 0.0051597846452095357 -0.0064486917334260277 0.0078736753521032564 0.013461616016861629 0.045315671316550343 -0.00023170105003793417 0.024417936141633314 0.030575196168707124 0.011960057813253086 0.02127236645001301 0.05142872522068604 3.4173058846463746e-05 0.0054702754779159977 0.039522673570014266 0.029755643942232776 0.027439131998430559 0.0055674949531032657 0.031422076803949262 0.01089683136376943
leaf_count=17450 2800 403114 10693 1975 22590 11711 8972 1430 2478 4431 1580 6682 66161 1154 1411 4220 146406 2060 1875 1722 1516 1346 1301 1699 1374 11757 1143 1437 1038 1702 1286 1271 2579 1017 5319 1061 3148 10488 6433 1793 1396 1188 6653 1491 36144 1001 1009 15025 9004 1060 18960 52094 10432 2488 1806 9516 1667 1518 2125 1113 1047 23145 1459 1018 1015 1009 4476 1422 1959
internal_value=0 -0.28352 0.143254 2.7385 -0.614734 2.38087 -0.0713507 3.83743 1.69323 0.873881 -0.165028 -0.343404 0.192869 4.81017 0.876261 0.683039 -0.497465 -0.680634 1.16798 1.37428 2.95646 2.85814 4.09927 4.76566 2.95381 2.81419 2.62106 2.46496 0.330999 3.70042 2.02767 2.18793 2.11356 3.11694 0.126772 4.02918 2.45957 0.427724 0.823611 1.4384 1.05734 0.190072 0.220914 1.02871 -0.141656 2.07513 1.2157 0.0354624 0.826458 1.98906 0.252817 -0.726748 1.302 1.8915 2.72612 0.0511165 0.621377 1.98997 1.68858 2.43745 3.5861 -0.441088 0.680311 1.95802 0.645772 0.670783 0.451779 1.19628 -0.560978
internal_count=991863 934649 386320 57214 548329 45422 307490 11792 23703 78830 283233 192472 90761 5584 24257 68828 155047 516557 18191 15285 5512 6208 4154 3000 21719 20345 18370 17227 31772 3139 10002 14088 5471 2892 89181 2407 4870 49882 23980 12099 10306 11881 30734 8144 38204 3801 6328 82853 10415 12817 37425 478353 18946 8514 4294 25902 16692 3034 8716 4285 2160 75239 8910 2477 19975 12720 15414 5898 148365
shrinkage=0.01


Tree=15
num_leaves=70
num_cat=0
split_feature=38 109 250 67 250 282 288 36 178 37 7 107 200 270 80 119 245 168 37 45 194 268 9 53 44 41 37 152 92 89 44 122 14 134 37 50 47 60 112 65 57 143 44 0 268 7 112 7 109 107 272 44 275 43 109 251 31 224 135 103 23 123 43 249 42 14 5 36 43
split_gain=13190.1 1522.68 1259.96 936.331 672.862 527.909 423.677 371.7 322.461 304.157 319.967 292.393 291.305 312.721 290.879 268.868 260.165 270.59 250.207 245.568 218.863 212.239 209.118 203.07 199.333 251.763 213.783 249.124 219.092 193.842 188.438 176.329 163.09 162.486 162.083 245.342 161.785 170.546 159.788 159.423 152.158 151.405 150.385 149.924 191.952 147.295 151.357 140.7 140.302 139.616 312.475 129.319 127.14 124.736 165.946 130.878 121.877 121.366 118.721 152.226 113.05 122.716 112.843 108.792 108.596 105.399 152.451 105.307 151.444
threshold=55.500000000000007 38.005000000000003 8.5000000000000018 40.500000000000007 4.5000000000000009 4.5000000000000009 3.5000000000000004 1.0000000180025095e-35 37.960000000000008 -1.3749999999999998 36.750000000000007 12.825000000000001 0.089999999999999997 101.50000000000001 201.25000000000003 0.97500000000000009 16.500000000000004 22.875000000000004 -123.96499999999999 103.25000000000001 2.3000000000000003 44.500000000000007 26.575000000000006 82.050000000000011 56.085000000000008 36.410000000000004 -3.7249999999999996 0.10000000000000143 24.250000000000004 23.050000000000004 52.085000000000008 97.250000000000014 58.250000000000007 2.1050000000000004 -131.08999999999997 136.25000000000003 1.5950000000000004 4.8450000000000006 76.750000000000014 1.6050000000000002 28.250000000000004 151.50000000000003 55.085000000000008 82.750000000000014 91.500000000000014 30.250000000000004 58.085000000000008 21.250000000000004 38.340000000000011 11.15 3.5000000000000004 63.415000000000006 40.500000000000007 108.08500000000002 38.735000000000007 28.500000000000004 11.15 0.099999999999999936 58.500000000000007 180.25000000000003 1.9750000000000003 34.225000000000009 130.16500000000005 27.500000000000004 36.460000000000008 32.500000000000007 74.585000000000022 1.0000000180025095e-35 105.08500000000002
